tree
version=v4
num_class=1
num_tree_per_iteration=1
label_index=0
max_feature_idx=20
objective=lambdarank
feature_names=distance gate horse_weight horse_weight_diff surface_encoded track_condition_encoded class_encoded jockey_id_encoded trainer_id_encoded horse_id_encoded rest_category_encoded gate_position_ratio distance_category_encoded past_1_distance past_2_distance past_3_distance distance_change horse_win_rate jockey_win_rate trainer_win_rate same_distance_avg_finish
feature_infos=[900:2600] [1:8] [363:591] [-64:50] none none [0:2] none none [0:3448] [0:5] [0.083333333333333329:1.3333333333333333] [0:3] [-1:2600] [-1:2600] [-1:2600] [-1200:2601] [-1:1] [-1:0.33333333333333331] [-1:0.33333333333333331] [-1:11]
tree_sizes=6931 6955 6939 6924 6936 6940 6939 6956 6941 6939 6954 6937 6946

Tree=0
num_leaves=63
num_cat=0
split_feature=20 17 20 11 17 11 14 19 17 17 2 17 20 2 17 0 20 20 19 9 19 20 2 9 6 11 3 6 9 10 17 20 1 16 19 17 19 3 11 11 20 9 1 6 19 9 11 17 16 17 14 19 19 2 9 18 18 2 2 9 9 2
split_gain=788.063 125.252 99.3763 99.3579 46.1325 39.5494 31.553 21.2585 16.0159 15.581 14.7204 14.5756 14.3299 13.038 12.5215 11.5012 11.1457 10.9415 8.75382 9.95526 8.95394 8.66974 8.53481 8.51585 8.14654 7.49596 7.43317 7.35194 9.22041 7.28874 7.25535 7.00749 6.82488 8.97403 6.75573 6.54706 6.3582 6.14533 5.8608 5.78486 7.00329 5.85651 5.76616 5.73435 5.49357 5.38124 5.89895 5.37621 5.33936 5.09093 6.37925 5.07473 4.97364 9.03547 4.91334 4.89086 5.00624 5.37202 4.81079 7.72302 4.67958 5.83387
threshold=4.0178571428571432 0.49137931034482768 6.0125000000000011 0.23611111111111113 -1.0000000180025095e-35 0.27922077922077926 1.0000000180025095e-35 0.11233360043004152 0.22048611111111113 0.67333333333333345 436.50000000000006 0.22401433691756276 -1.0000000180025095e-35 411.50000000000006 0.066228070175438608 1600.0000000000002 4.7801932367149762 7.3397435897435903 0.1109494344256655 2352.5000000000005 0.11501458009740387 2.477272727272728 459.50000000000006 1068.5000000000002 1.0000000180025095e-35 0.11805555555555557 -3.4999999999999996 1.5000000000000002 2034.5000000000002 2.5000000000000004 0.30602006688963218 3.0263157894736845 1.5000000000000002 1.0000000180025095e-35 0.11422126482350527 0.35805860805860812 0.11255030992689137 6.5000000000000009 0.087121212121212141 0.13392857142857145 5.2880184331797242 2587.5000000000005 6.5000000000000009 1.5000000000000002 0.11229352659933872 1338.5000000000002 0.095454545454545472 0.35805860805860812 150.00000000000003 0.22792207792207794 1450.0000000000002 0.11392937427304205 0.11487944114734698 452.50000000000006 432.50000000000006 0.11611161141714348 0.11144204682383034 508.50000000000006 472.50000000000006 873.50000000000011 608.50000000000011 458.50000000000006
decision_type=2 2 2 2 2 2 2 2 2 2 2 2 2 2 2 2 2 2 2 2 2 2 2 2 2 2 2 2 2 2 2 2 2 2 2 2 2 2 2 2 2 2 2 2 2 2 2 2 2 2 2 2 2 2 2 2 2 2 2 2 2 2
left_child=1 3 5 6 10 11 13 42 15 32 54 39 23 -1 17 22 47 36 38 27 -21 24 -6 30 -14 -16 29 28 58 -23 44 48 33 -3 -18 -32 -4 -29 -15 41 -41 -2 -7 -24 -8 -13 -47 -9 -10 50 -26 -39 53 -25 -5 56 57 -12 59 -20 -40 -62
right_child=2 9 14 4 8 7 12 16 31 -11 55 45 21 18 25 -17 34 -19 19 20 -22 26 43 52 49 -27 -28 37 -30 -31 35 -33 -34 -35 -36 -37 -38 51 60 40 -42 -43 -44 -45 -46 46 -48 -49 -50 -51 -52 -53 -54 -55 -56 -57 -58 -59 -60 -61 61 -63
leaf_value=-0.010324919519011988 -0.010342562397362167 0.0077514542941299891 -0.007335180925842337 -0.0095051278419117455 0.00084723383764159126 0.00013127777090830983 -0.0050665513257824278 -0.0021203102616468711 0.0072575780140717305 0.01381877355159781 0.0034344611097794036 -0.0060769296666998663 -0.0076880497508290029 0.015314573906712124 -0.015137850086450662 -0.0044525163493772772 -0.0024480743128284942 -0.015902842713858063 -0.017240481236148703 -0.010166140854179559 0.0024819714673698038 0.0038369744855059756 0.0018999066748808563 -0.0070547546795859178 0.0068142847853707869 -0.0059006651438984507 -0.0030309692137306023 0.0091732607337955893 0.013429816154177765 -0.011472887184330913 0.0091813794587667016 0.0021834771060816028 0.0098929199964504742 -0.0032564630124197729 -0.0063371550783112331 -0.013102947119582145 -0.012331250758497003 -0.0075310383299558772 -0.0096455937949413116 -0.0048715701261606622 -0.0103697831491964 -0.0033764450843675937 0.0072166336732063362 0.0055396477992829445 -0.013252501388786909 0.019297140116787653 0.00045179023808410271 0.0075798793007018483 0.00035622576735383423 0.0085459045705407882 -0.0077569748363805644 0.0067233504019288135 -0.0060231011101358582 0.003677987022066198 0.0039835770871851769 -0.0084795915441440023 0.0094505869113820137 0.01269102565254298 0.0042873656412527692 -9.6573247616726872e-05 -0.0074970688156107421 0.0096123789773425259
leaf_weight=7.1186749567277721 142.88428413495421 33.111526537686586 31.810702616348863 2.8382263006642452 163.29781791567802 24.765367925167084 12.217401154339312 154.02440546639264 132.01506200432777 93.921035911887884 28.388624381273985 12.752452414482834 5.6273576095700255 1.606367945671084 10.819615760818122 25.595637679100037 62.415219048038125 78.127774357795715 3.1922989040613201 7.5528667829930809 21.615042190998793 30.023947726935148 74.529583415016532 12.798517789691685 6.7149881199002284 46.720096502453089 130.19863153994083 55.812384713441133 6.5046217888593665 3.4689199067652217 3.799970068037509 45.844691008329391 131.47422703355551 9.5395532399415952 157.07002034038305 2.018837071955204 127.85218565911055 4.2976609766483289 8.9294828623533267 69.27092831581831 34.807024799287319 13.18201696872711 21.420344293117523 103.25369366817176 24.920223768800497 1.8640816509723688 15.245319470763205 5.9337984956800929 12.250680457800625 19.43703568726778 5.4374149292707443 5.9627991914749146 31.648036263883114 20.261640958487988 55.631375077180564 1.6213923692703236 245.96460936404765 8.0466630104929191 16.971455920487642 14.855694547295569 4.0634247362613669 3.9110772237181664
leaf_count=47 805 134 492 59 2696 477 80 2787 1771 708 434 89 38 4 64 491 1145 1309 26 54 123 167 1228 90 34 794 821 262 24 27 16 721 1476 47 3082 14 2013 27 65 712 390 68 321 1506 183 4 92 74 214 94 40 32 218 108 795 30 2947 84 88 88 27 20
internal_value=-5.73699e-12 0.00428441 -0.00694298 0.00306148 0.0050102 -0.00492887 -0.000659472 -0.00298838 0.00323382 0.010536 0.00789807 -0.00777685 -0.00253719 0.00290848 -0.0118235 0.0020126 -0.00376809 -0.0128364 0.00351517 0.00438868 -0.000793186 -0.000959651 0.00249776 -0.00548097 0.00339695 -0.0076376 -0.00195017 0.00579341 0.00249608 0.0022513 -0.00893275 0.00558925 0.0087653 0.00528937 -0.00523121 0.00144982 -0.0113359 0.00786565 -0.00293881 -0.00853641 -0.00671035 -0.00975417 0.00341738 0.00401381 -0.0105595 -0.0011599 0.002505 -0.00176047 0.00667153 0.00537164 0.000294588 0.000752806 -0.00318951 -0.000476959 0.00332881 0.00883871 0.00893814 0.00547876 0.00046521 -0.00312896 -0.00467341 0.000894223
internal_weight=2649.26 1638.29 1010.97 1370.24 899.278 715.635 470.967 425.629 556.787 268.046 342.491 290.006 308.573 162.394 295.33 366.677 379.443 237.791 155.275 136.765 29.1679 200.908 341.081 107.665 37.2168 57.5397 163.691 107.597 41.5241 33.4929 42.9564 190.11 174.125 42.6511 219.485 5.81881 159.663 66.0728 18.5104 260.144 104.078 156.066 46.1857 177.783 37.1376 29.8619 17.1094 159.958 144.266 31.5894 12.1524 10.2605 64.7082 33.0602 58.4696 284.021 282.4 36.4353 35.0194 18.048 16.904 7.9745
internal_count=32876 18158 14718 15793 12976 10046 2817 7886 8627 2365 4349 2160 1930 887 4672 5921 7088 3814 840 724 177 1221 5430 709 206 858 1015 547 226 194 293 2706 1657 181 4227 30 2505 321 116 1975 1102 873 798 2734 263 185 96 2861 1985 168 74 59 416 198 854 3495 3465 518 202 114 112 47
is_linear=0
shrinkage=0.01


Tree=1
num_leaves=63
num_cat=0
split_feature=20 17 17 20 17 17 20 20 20 2 18 0 20 17 18 17 19 2 20 19 10 16 6 3 9 3 16 9 2 14 1 18 2 11 3 12 9 18 11 14 18 11 10 3 19 20 2 15 2 2 3 16 9 9 9 6 18 18 9 19 17 18
split_gain=3639.68 580.577 397.965 286.104 138.94 116.829 101.326 89.5733 105.423 84.6306 65.6478 64.2414 52.8427 51.2458 47.9001 47.2644 46.4623 44.8965 42.2995 33.6846 31.803 31.7588 30.1007 29.9362 27.4297 26.354 27.6118 25.1736 24.9916 24.7544 23.8532 23.7844 24.4606 24.7672 23.6467 24.2074 23.1548 21.5946 22.4653 20.3359 20.1743 24.9639 18.7799 18.2683 18.1577 18.117 17.8581 17.8477 17.745 17.6089 17.5358 17.5122 27.9878 17.4311 17.1542 16.674 16.5386 16.5228 18.506 16.2967 16.2951 16.2948
threshold=4.0923295454545459 0.46862745098039221 -1.0000000180025095e-35 6.0125000000000011 0.24190177638453506 0.67333333333333345 4.7801932367149762 1.0000000180025095e-35 3.0263157894736845 459.50000000000006 0.1109494344256655 1600.0000000000002 2.8819444444444451 0.069204980842911892 0.11266750937149057 0.27361853832442073 0.11265122172054079 410.50000000000006 2.6076923076923082 0.11599848887401652 2.5000000000000004 1.0000000180025095e-35 1.5000000000000002 7.5000000000000009 884.50000000000011 -11.499999999999998 -149.99999999999997 2417.0000000000005 404.50000000000006 1450.0000000000002 6.5000000000000009 0.11545432291950665 522.50000000000011 0.76388888888888895 24.500000000000004 1.5000000000000002 2329.5000000000005 0.11512130561855734 0.88194444444444453 1150.0000000000002 0.11247964034368693 0.61250000000000016 1.5000000000000002 1.5000000000000002 0.11236014105764894 7.5741758241758248 534.50000000000011 -1.0000000180025095e-35 471.50000000000006 414.50000000000006 10.500000000000002 -1.0000000180025095e-35 550.50000000000011 560.50000000000011 954.50000000000011 1.5000000000000002 0.11502438894954464 0.11217052920224473 987.50000000000011 0.11417494357991491 0.090326340326340335 0.11611161141714348
decision_type=2 2 2 2 2 2 2 2 2 2 2 2 2 2 2 2 2 2 2 2 2 2 2 2 2 2 2 2 2 2 2 2 2 2 2 2 2 2 2 2 2 2 2 2 2 2 2 2 2 2 2 2 2 2 2 2 2 2 2 2 2 2
left_child=1 2 9 6 7 18 15 11 47 10 -1 22 21 45 30 16 -2 -12 23 -7 34 44 53 24 31 48 -27 40 -24 -10 -8 32 33 42 35 37 50 38 -19 -30 41 43 -3 -14 -6 -5 -15 -9 -11 -26 -28 52 -41 -4 -42 -37 -46 -49 -59 -40 -16 -39
right_child=3 5 4 13 12 19 14 8 29 25 17 -13 27 46 60 -17 -18 20 -20 -21 -22 -23 28 -25 49 26 36 -29 39 -31 -32 -33 -34 -35 -36 55 -38 61 59 51 54 -43 -44 -45 56 -47 -48 57 -50 -51 -52 -53 -54 -55 -56 -57 -58 58 -60 -61 -62 -63
leaf_value=-0.0041843337272828079 -0.00092821447596793186 0.0082030556988438481 -0.010198542291793726 -0.013166262232645328 0.0098509334198327563 0.011852137204576398 -0.0072229608234980081 0.0087915598622661083 -5.0402704738261213e-05 -0.0093653235253539479 -0.0045460447186560036 -0.011126056367386217 -0.0099772508105125286 -0.0089388389701090358 -0.0099752105530458574 0.0022026639459557357 -0.0060403971191183336 0.0030054698277559517 0.0015291642168087159 -0.0013084881334510456 -0.007048271191137781 0.00098320721687424929 -0.014297304426839423 0.00090264180219942541 -0.0013997637507681196 -0.0052604701495665117 0.0076500590578109868 0.0063447845964486075 -0.011069112687448422 -0.0030027262975008957 -0.002044175141081319 -0.0049761222629445935 -0.0076522268906253545 0.011634392257128491 -0.012153286317880053 -0.011182269694414923 0.004273023040672134 0.0074023321481235119 0.012581416578758713 -0.005495521337644073 -0.0059133606274026501 0.01166968715925 0.0014401068229598908 0.0074770160605893005 0.003004229651133174 -0.016748890116838791 0.0085230593880656052 0.0093542936431332113 0.002838747811224878 0.0086903421755700466 0.0043909375220049897 -0.0020446270298610141 0.0041052376709012749 -0.0041524405731341854 -0.00070171621689210347 0.0058115956594287236 0.0062636902097016698 -0.00055409490913152656 0.0035596843638293491 0.0040226931099462872 -0.0075512034952679935 -0.0098787835407512306
leaf_weight=121.48203467577696 224.55913266539574 72.571315556764603 64.38492488488555 602.95517540350556 71.481628336012363 687.05080235004425 210.84647130966187 55.337581634521484 505.63647159188986 14.605680555105208 63.755819857120514 104.04130179435015 14.187230467796327 203.0178671143949 824.9368098936975 100.2602750658989 853.46498063206673 537.32341397553682 155.57118736207485 20.014676451683044 24.868886783719063 260.40074797719717 15.045628771185873 73.089913696050644 17.694096848368645 19.782167218625546 1186.3583336696029 47.906794115900993 20.320109501481056 647.93462251871824 153.82423722743988 22.94121527671814 13.04807063937187 65.424281522631645 8.5449784398078901 16.184527270495892 337.20272287726402 285.68119391798973 45.84432914853096 39.844757370650768 94.323596708476543 24.466329097747803 94.563224270939827 10.386481642723082 332.43075061589479 184.29366561770439 6.0306667536497107 36.561804495751858 64.654549576342106 768.34763036668301 191.77910970151424 390.59374535083771 127.60882287472486 183.83362755179405 191.13798930495977 8.9757291823625582 292.77030796557665 151.81326877325773 390.98423288762569 43.223004549741745 417.77185225859284 5.5626201629638663
leaf_count=355 666 95 254 2834 132 681 805 110 1322 31 190 435 48 803 3268 235 2986 1012 229 27 54 623 61 106 27 48 1834 101 64 1901 400 37 23 81 18 40 541 476 74 112 269 41 136 22 681 1019 16 79 114 940 318 1055 300 604 505 22 550 408 963 85 1586 24
internal_value=-3.89796e-13 0.00344624 0.00209962 -0.00823715 6.87868e-05 0.00821567 -0.00659227 -0.00122395 9.23347e-05 0.00487951 0.00277173 -0.00371304 0.00270729 -0.0128363 -0.00822518 -0.00436471 -0.0049755 0.00358429 0.00641726 0.0114796 0.00411528 0.00396278 -0.00279665 0.00709161 0.00752055 0.00622877 0.00648635 -0.000434904 -0.00157354 -0.00170866 -0.00503846 0.00476136 0.0056709 0.00641842 0.00440711 0.0045572 0.00662182 0.00482253 0.00377651 -0.00124254 -0.00140588 0.00451926 0.00437664 -0.00259992 0.00507646 -0.0140049 -0.0084351 0.00336566 0.000589842 0.00846321 0.00719653 -0.000884731 0.00182078 -0.00572073 -0.00242377 -0.00511984 0.00453058 0.00284741 0.00240911 0.008428 -0.00916031 0.00707227
internal_weight=12821.5 9039.58 7049.26 3781.96 4073.43 1990.32 2785.66 2733.94 1788.27 2975.83 1161.45 945.673 1339.49 996.297 1607.38 1178.28 1078.02 1039.96 1283.25 707.065 976.209 957.083 841.632 1127.68 1054.59 1814.38 1735.12 382.408 593.413 1153.57 364.671 268.548 245.607 232.559 951.34 942.795 1715.34 917.635 626.391 578.367 334.502 49.04 167.135 24.5737 696.683 787.249 209.049 634.697 79.2602 786.042 1378.14 558.047 167.454 248.219 285.462 25.1603 625.201 579.359 542.798 89.0673 1242.71 291.244
internal_count=32876 18258 15876 14618 10640 2382 9946 7668 4783 5236 2350 2885 2972 4672 6059 3887 3652 1995 1674 708 1805 1986 2450 1445 1339 2886 2741 986 1592 3223 1205 372 335 312 1751 1733 2693 1671 1171 1531 885 111 231 70 1363 3853 819 1560 145 967 2152 1467 412 858 774 62 1231 1450 1371 159 4854 500
is_linear=0
shrinkage=0.01


Tree=2
num_leaves=63
num_cat=0
split_feature=20 17 17 20 17 20 17 20 20 2 17 0 19 17 20 16 19 18 1 2 3 2 20 9 19 9 11 19 19 2 16 2 9 11 18 10 17 3 20 6 1 6 16 10 17 3 2 11 17 18 1 1 2 17 18 19 9 9 2 13 3 13
split_gain=3066.9 550.991 327.695 243.96 114.532 83.1249 82.6192 70.3436 85.1888 60.3854 46.3119 41.4236 36.7505 37.9732 31.7365 40.9053 30.7545 30.5822 36.2599 28.7837 26.6319 25.6396 25.6211 24.4135 24.2771 26.4269 23.3314 22.6187 21.4451 22.5412 21.1464 20.8216 19.647 19.2247 18.6785 18.0037 17.5829 17.2094 17.1208 17.0322 16.6602 16.6186 16.5689 15.5979 15.5621 17.7436 15.1102 15.0506 14.5833 20.0119 14.4075 20.7253 14.7328 14.207 13.9554 13.9116 16.5701 17.0296 16.9771 15.8399 18.8688 13.8718
threshold=4.0178571428571432 0.46862745098039221 -1.0000000180025095e-35 6.0125000000000011 0.21132376395534294 4.7533783783783798 0.67333333333333345 -1.0000000180025095e-35 3.0263157894736845 446.50000000000006 0.066228070175438608 1600.0000000000002 0.11232084082128289 0.35805860805860812 3.0263157894736845 150.00000000000003 0.11599848887401652 0.11422126482350527 6.5000000000000009 410.50000000000006 -12.499999999999998 542.50000000000011 2.6794871794871802 608.50000000000011 0.11245290489833884 2034.5000000000002 0.76388888888888895 0.11514122459183074 0.11162711685830735 464.50000000000006 350.00000000000006 437.50000000000006 3031.5000000000005 0.21111111111111114 0.11547727859025618 4.5000000000000009 0.42640692640692646 7.5000000000000009 7.4409722222222232 1.5000000000000002 5.5000000000000009 1.5000000000000002 250.00000000000003 2.5000000000000004 0.051503094606542892 5.5000000000000009 510.50000000000006 0.81666666666666676 0.21132376395534294 0.11415829804185053 6.5000000000000009 2.5000000000000004 438.50000000000006 0.066228070175438608 0.11230730611116509 0.10133646862721754 845.50000000000011 724.50000000000011 520.50000000000011 1450.0000000000002 2.5000000000000004 1450.0000000000002
decision_type=2 2 2 2 2 2 2 2 2 2 2 2 2 2 2 2 2 2 2 2 2 2 2 2 2 2 2 2 2 2 2 2 2 2 2 2 2 2 2 2 2 2 2 2 2 2 2 2 2 2 2 2 2 2 2 2 2 2 2 2 2 2
left_child=1 2 9 5 7 12 22 11 43 19 38 23 33 41 15 -6 42 18 36 -1 34 -12 30 -4 -16 -26 28 -21 29 -22 37 44 61 -2 -11 -30 -7 -3 -5 46 47 -14 -8 -9 45 -25 -10 -33 -43 -50 51 -27 -52 -19 -42 -31 57 58 59 -57 -61 -28
right_child=3 6 4 10 14 17 16 8 39 20 21 -13 13 -15 24 -17 -18 53 -20 27 26 -23 -24 31 25 50 32 -29 35 55 -32 40 -34 -35 -36 -37 -38 -39 -40 -41 54 48 -44 -45 -46 -47 -48 -49 49 -51 52 -53 -54 -55 -56 56 -58 -59 -60 60 -62 -63
leaf_value=-0.0044580173156802414 -0.014300266536151518 0.0075446915339191 -0.0063039950628914591 -0.012725614037756518 0.0035467781569012238 -0.0082836778220131378 0.011839718877280048 0.0034080196196738287 -0.003860771455954432 0.00054185389728576285 -0.0088353123620111811 -0.010186781538495433 -0.0070061062831512227 0.0037874788909370871 0.0070316829589342602 -0.0041570954295558618 -0.0041515596347032994 -0.010140433702453192 -0.0027871071226025558 0.0011959252996317255 -0.0055310697605043388 0.013241249064425585 0.0017847709273614673 -0.0076411144086468976 -0.0034054341048962672 -0.0066212491681099063 0.008260616927088231 0.0053204485438931616 0.0054562166298003992 0.0085819091107959718 -0.0043327273376736631 -0.00208068224612658 -0.0069626295681375888 0.0017483192428380413 -0.018528088617574247 -0.0036110984456131923 0.012105962791147552 0.0014084928485006102 -0.016273430672456731 -0.00071285374217145369 0.0077465851408093436 -0.0047812861264951859 0.0045953221177183505 -0.0022620426465833486 0.002439036033810404 0.0040920400551087708 0.0037922633719629051 -0.018379436389229502 -0.016302447207783673 0.0037162044989195566 0.0073727989969820298 0.0092022300280705481 -0.011247154637309232 -0.0076240429527816393 0.00026481918804327292 -0.006042525202465049 0.0085135339313786636 -0.012250134974685757 0.010791462192145693 0.0067075400282433943 -0.010920329813249323 0.0042210245377952279
leaf_weight=64.887218624353409 7.9627433866262427 959.39250048995018 160.62905261293054 492.4960116520524 1073.207597412169 351.43377260118723 581.68905928730965 560.11299524083734 390.55754764378071 54.558299042284489 195.50326495617628 84.967948157340288 383.86813203990459 47.210025228559971 37.299479186534882 73.652553386986256 12.905770391225813 521.12004620581865 208.61273074150085 404.48018255829811 34.652307234704494 5.4062384665012351 100.70208629965782 119.65010276436806 203.71783557534218 10.201434224843977 445.43071123957634 198.06841430068016 1356.7038097828627 38.749503195285797 16.006002679467201 265.56850445270538 9.5698928236961347 119.23151113092899 5.6700029820203772 22.257232010364532 4.2808535918593398 47.991677939891815 187.91961857676506 585.44487380981445 29.641819000244141 517.47742560505867 33.382912546396255 53.117659635841846 23.535789638757706 14.444774046540259 27.623637691140175 5.7890756279230109 5.7239557951688758 39.139609895646572 6.887873753905299 43.889508798718452 11.093266308307646 393.98573248833418 156.86030552536249 32.009829469025135 27.978275410830975 10.494137533009051 15.318826764822004 32.391859702765942 7.4731011092662802 105.0568844974041
leaf_count=239 41 1327 582 2585 2148 1470 634 1274 1298 127 849 410 1488 96 81 265 27 2326 678 988 120 9 207 444 652 35 666 348 2166 64 36 774 17 315 17 51 9 104 1229 1571 73 1837 47 150 68 36 80 13 20 105 16 92 37 1661 441 85 40 22 22 61 22 181
internal_value=2.05839e-12 0.00321986 0.00193205 -0.00791302 5.9858e-05 -0.00637181 0.00822065 -0.00124919 -1.96135e-05 0.00450468 -0.0124598 -0.00355795 -0.00431737 -0.00496536 0.00228167 0.00305203 0.011126 -0.00792798 -0.00609711 0.00187025 0.00530453 -0.00824126 0.00659759 -0.00283224 -0.000540163 -0.00156422 0.00548926 0.00255173 0.00486694 0.00179875 0.00707117 -0.00192618 0.00724274 0.000743629 -0.00125343 0.00530986 -0.0080383 0.00725236 -0.0137055 -0.00181386 -0.000846987 -0.00540207 0.0114465 0.00291688 -0.00506086 -0.00637721 -0.00335524 -0.0024284 -0.00430712 0.00116211 0.00364011 0.00621796 -0.00411458 -0.00905704 0.00145394 0.00334359 0.00172833 -0.000214984 0.0012335 -0.000803609 0.00340301 0.00748969
internal_weight=12037.1 8555.71 6803.64 3481.37 3937.89 2600.05 1752.07 2477.94 1616.86 2865.75 881.325 861.087 1120.61 993.419 1459.95 1146.86 627.978 1479.43 564.327 667.436 2198.31 200.91 1124.09 776.119 313.089 275.79 2138.09 602.549 1578.03 199.068 1023.39 615.49 560.057 127.194 60.2283 1378.96 355.715 1007.38 680.416 1003.63 457.86 946.209 615.072 613.231 157.631 134.095 418.181 271.358 562.341 44.8636 72.0721 54.0909 17.9811 915.106 186.502 164.416 125.666 97.6878 87.1936 71.8748 39.865 550.488
internal_count=32876 18158 15776 14718 10540 10046 2382 7214 4373 5236 4672 2841 3902 3546 3326 2413 708 6144 2157 1575 3661 858 1674 2431 913 832 3517 1336 2653 436 1467 1849 864 356 144 2217 1479 1431 3814 2949 1301 3450 681 1424 548 480 1378 787 1962 125 180 127 53 3987 514 316 252 212 190 168 83 847
is_linear=0
shrinkage=0.01


Tree=3
num_leaves=63
num_cat=0
split_feature=20 17 17 20 17 17 20 2 20 20 17 12 17 18 19 1 2 9 19 20 2 2 17 3 9 20 9 18 2 18 19 1 13 3 3 19 3 9 13 16 3 18 15 9 2 1 18 3 20 9 19 20 17 18 11 17 16 16 2 19 2 2
split_gain=2589.85 476.433 281.609 209.898 94.4853 88.8339 68.3993 59.1552 51.9386 71.3974 44.5665 38.0567 33.4782 28.2384 26.8008 32.2391 26.0516 25.17 25.5825 28.5762 25.0498 25.0158 24.9944 24.6001 24.0739 22.2278 21.7403 19.8186 19.6944 19.0318 18.9756 18.9153 17.8331 17.6415 17.4263 17.058 18.0821 18.7546 18.0645 16.3605 18.9097 15.6879 21.617 16.0054 16.2025 15.5335 15.3963 17.7413 15.2106 14.2925 18.8293 18.9052 14.7697 14.1943 14.145 13.9194 17.8408 13.7338 15.0997 27.9093 17.6877 17.5772
threshold=4.0178571428571432 0.49137931034482768 -1.0000000180025095e-35 6.0125000000000011 0.21132376395534294 0.67333333333333345 4.7533783783783798 446.50000000000006 1.0000000180025095e-35 3.0263157894736845 0.069204980842911892 1.5000000000000002 0.27361853832442073 0.11232084082128289 0.11422126482350527 6.5000000000000009 410.50000000000006 1996.5000000000002 0.11237387276149877 3.3257575757575766 425.50000000000006 542.50000000000011 0.42640692640692646 -2.4999999999999996 608.50000000000011 2.2583333333333337 1387.5000000000002 0.11599848887401652 405.50000000000006 0.11514122459183074 0.11426686456336142 5.5000000000000009 1450.0000000000002 7.5000000000000009 -5.4999999999999991 0.11605760126115423 20.500000000000004 1769.5000000000002 1600.0000000000002 250.00000000000003 2.5000000000000004 0.11217052920224473 -1.0000000180025095e-35 1143.5000000000002 498.50000000000006 7.5000000000000009 0.11389426871919352 34.500000000000007 7.4409722222222232 978.50000000000011 0.1148999612773199 1.7638888888888891 0.35805860805860812 0.1155133182609879 0.36931818181818188 0.30602006688963218 -449.99999999999994 1601.0000000000002 509.50000000000006 0.11144204682383034 528.50000000000011 559.50000000000011
decision_type=2 2 2 2 2 2 2 2 2 2 2 2 2 2 2 2 2 2 2 2 2 2 2 2 2 2 2 2 2 2 2 2 2 2 2 2 2 2 2 2 2 2 2 2 2 2 2 2 2 2 2 2 2 2 2 2 2 2 2 2 2 2
left_child=1 2 7 6 8 25 12 16 11 41 48 24 13 32 15 22 -1 18 -6 20 -20 -12 -8 -19 -4 33 30 39 -26 -18 -27 -30 -2 -3 -9 36 38 46 57 -7 -41 54 -43 -44 -45 -40 47 -38 -5 55 -51 53 -53 -52 -10 56 -22 58 59 -36 -60 -62
right_child=3 5 4 10 17 27 14 34 9 -11 21 -13 -14 -15 -16 -17 29 23 19 -21 49 -23 -24 -25 28 26 -28 -29 31 -31 -32 -33 -34 -35 35 -37 37 -39 45 40 -42 42 43 44 -46 -47 -48 -49 -50 50 51 52 -54 -55 -56 -57 -58 -59 60 -61 61 -63
leaf_value=-0.0048256813711701953 0.0046471022716208293 0.0070134860186487728 -0.0062148624840098511 -0.012314740700461312 0.0050012314722415871 0.011597868148112922 -0.0081184851232192785 0.0029918841194916447 -0.0024282647010054371 -0.0018561574435327374 -0.0083064019298345285 -0.0098748425767218127 0.0013918980865348382 -0.0054043338663305254 -0.0086705271866926326 -0.0026990462048791181 0.00087378562336221783 -0.00038549609746826299 -0.0084490178100656826 -0.0034740838714085445 0.015405814921764918 0.012331306669360919 0.013266801110257855 0.0053990091658561333 -0.012493442302438746 0.0025007829068549835 0.006348721567029916 -0.0029569113372223273 -0.0029791363269214407 0.0047385503846186653 -0.0075097758162076768 0.0006813505179374689 -0.0032497627892834747 0.00021877340779344651 0.0011352296797225065 -0.002887521728760143 -0.0069777984000818265 -0.0073867190864549846 -0.0042008917441338943 0.0080754338073987086 -0.011334692216258798 0.0081188581407403513 -0.001170802252281767 0.0017998717743033859 0.0083980217354962979 0.011097241878533004 0.012792603051250491 0.01521073329114492 -0.015845801306243169 0.0046011184085752608 -0.0094436500434277888 0.004129450450267259 -0.0033766030002759296 0.0015848252768446737 0.010222273030772057 0.0017437335855877607 -0.0040565575973572771 0.0014591428210059098 0.0099804421929586464 0.0060968233751365923 0.0017178244123510239 0.016276154783644432
leaf_weight=58.7491415143013 46.13903971388936 863.78790385276079 144.28815169632435 455.88971040397882 149.64950956404209 537.35481250286102 322.04855288565159 359.31096278876066 11.097386598587034 951.43445871770382 173.86176946014166 78.65735668130219 97.344228848814964 849.28015580773354 849.79458576440811 204.98343420028687 380.83139723539352 94.898295670747757 25.147388011217117 148.16592928767204 4.9558407962322226 6.0787799358367911 5.5596338957548133 326.35340851545334 16.303773678839207 58.299783080816269 86.195651061832905 10.076976239681242 316.6043763011694 191.48655205965042 28.044336177408695 254.76069051027298 75.214779283851385 39.980113603174686 124.9497211612761 24.455808967351913 13.873429819941522 21.625092871487141 31.323941595852375 24.610849723219875 6.304947778582572 52.690349876880646 164.5628308057785 294.53060912340879 42.599453456699848 8.4218596741557104 13.499973714351652 4.8679663836956015 166.56450165063143 249.44287826865911 28.787272118031979 105.91364054381847 34.837515667080879 19.627225309610367 43.424003183841705 147.39162237942219 94.952256262302399 67.928685877472162 177.70090432465076 1223.5850543305278 55.508184939622879 9.7499750852584821
leaf_count=239 107 1235 582 2620 314 634 1470 674 25 2949 810 410 237 3323 3987 678 988 228 72 505 7 9 9 673 80 110 144 27 1049 348 72 720 235 96 318 53 39 52 92 33 14 90 445 713 81 17 18 5 1233 509 80 224 90 39 70 356 246 144 249 1900 90 10
internal_value=3.30698e-12 0.00298765 0.00177963 -0.00755336 1.27965e-05 0.00778348 -0.00609972 0.00420599 -0.00121169 -0.000144894 -0.0119925 -0.00326515 -0.00419888 -0.00475958 -0.00756823 -0.00580942 0.00151589 0.00204283 0.00118558 0.000521015 0.00135349 -0.00760922 -0.00775557 0.00409589 -0.00255486 0.006085 0.002796 0.0109444 -0.00165623 0.00216686 -0.000750619 -0.001347 -0.000247354 0.00671291 0.00500046 0.00540649 0.00552219 -0.000181919 0.00570302 0.0111909 0.00411695 0.00252901 0.00202564 0.0013857 0.00263361 -0.000959323 0.00465052 -0.00121446 -0.0132596 0.00171288 0.00279679 0.000417525 0.00227162 -0.00497271 0.00764736 -0.000209538 -0.00309115 0.0058626 0.00605055 0.0056371 0.00834535 0.00389293
internal_weight=11476.4 8223.6 6568.94 3252.76 3801.08 1654.66 2450.36 2767.87 2370.95 1560.34 802.395 810.614 1067.98 970.634 1382.39 532.592 631.067 1430.12 1008.87 859.222 711.056 179.941 327.608 421.252 731.957 1076.31 172.54 578.348 587.669 572.318 86.3441 571.365 121.354 903.768 2136.8 1777.49 1753.03 53.8665 1699.17 568.271 30.9158 608.905 554.383 501.693 337.13 39.7458 32.2414 18.7414 622.454 685.908 438.609 189.166 140.751 48.4145 54.5214 247.3 99.9081 1659.42 1591.49 1348.53 242.959 65.2582
internal_count=32876 18158 15793 14718 10557 2365 10046 5236 7214 4373 4672 2841 3902 3665 6144 2157 1575 3343 2442 2128 1623 819 1479 901 2431 1657 326 708 1849 1336 182 1769 342 1331 3661 2987 2934 114 2820 681 47 1424 1329 1239 794 109 62 44 3853 1551 942 433 314 119 95 609 253 2711 2567 2218 349 100
is_linear=0
shrinkage=0.01


Tree=4
num_leaves=63
num_cat=0
split_feature=20 17 20 15 17 2 20 20 17 17 20 2 19 18 16 20 12 17 19 3 9 19 3 11 10 2 19 3 11 13 9 11 19 6 17 11 18 3 2 6 2 2 18 9 2 20 18 10 19 9 20 20 9 17 20 17 18 20 17 10 11 9
split_gain=2304.71 375.102 320.89 120.991 111.938 65.4046 63.3576 63.3518 44.4314 41.384 36.2175 34.2575 50.3216 33.8426 33.3453 30.1651 29.1349 26.6509 25.9099 24.6999 23.6232 32.8881 21.6656 20.9335 20.779 19.1335 19.0773 18.4992 18.0904 17.3125 17.6818 18.832 16.6862 16.5053 24.8912 15.189 15.0482 15.7572 14.9789 17.4204 14.8043 18.798 14.7981 17.0453 17.1277 14.4879 13.7971 13.7633 13.6981 16.5737 13.5905 14.54 13.7796 13.471 13.4596 13.2917 23.4689 17.4453 18.6273 18.1995 14.1468 13.0602
threshold=3.5577777777777784 0.57518796992481214 5.0102040816326534 -1.0000000180025095e-35 0.12933094384707292 413.50000000000006 1.3666666666666669 6.0690476190476197 0.37668918918918926 0.069204980842911892 4.0923295454545459 459.50000000000006 0.11162711685830735 0.11232084082128289 150.00000000000003 3.0263157894736845 1.5000000000000002 0.86607142857142871 0.11500935440108802 12.500000000000002 1387.5000000000002 0.11236014105764894 -9.4999999999999982 0.43650793650793657 2.5000000000000004 542.50000000000011 0.11607884780140705 -11.499999999999998 0.86607142857142871 1450.0000000000002 2091.5000000000005 0.76388888888888895 0.11291933749179067 1.5000000000000002 0.21320346320346323 0.21111111111111114 0.11577139126124629 -4.4999999999999991 449.50000000000006 1.5000000000000002 488.50000000000006 478.50000000000006 0.11197571937639531 1068.5000000000002 498.50000000000006 7.4409722222222232 0.11517033140878875 2.5000000000000004 0.11243994045988019 2509.5000000000005 2.477272727272728 1.2613636363636365 1518.5000000000002 0.32945736434108536 1.5277777777777779 0.29520697167755999 0.11599848887401652 2.5916666666666672 0.15184453227931491 1.5000000000000002 0.6515151515151516 2808.5000000000005
decision_type=2 2 2 2 2 2 2 2 2 2 2 2 2 2 2 2 2 2 2 2 2 2 2 2 2 2 2 2 2 2 2 2 2 2 2 2 2 2 2 2 2 2 2 2 2 2 2 2 2 2 2 2 2 2 2 2 2 2 2 2 2 2
left_child=1 3 8 5 6 -1 16 28 10 45 -2 12 -7 35 15 19 38 23 -10 20 21 -6 54 -3 -14 -11 27 -13 -4 30 31 -29 -30 -15 -35 -12 40 -38 -5 -40 41 61 -8 -44 -45 -9 -43 48 -17 -50 51 53 -52 -24 -22 57 -57 58 -23 -59 -61 -32
right_child=2 17 7 4 14 11 42 9 18 25 13 26 24 33 -16 47 -18 -19 -20 -21 22 55 50 -25 -26 -27 -28 29 32 -31 36 -33 -34 34 -36 -37 37 -39 39 -41 -42 46 43 44 -46 -47 -48 -49 49 -51 52 -53 -54 -55 -56 56 -58 59 -60 60 -62 -63
leaf_value=-0.0042532594552670911 -0.0022375347499806316 0.0056331221342888317 -0.0084557577362515332 -0.0065043622267248581 0.0060426563891653228 -0.0034648583171508428 0.0073780711832786838 -0.012021090101826542 0.0061610412366605513 -0.0080596670737102492 -0.011817394760350881 -0.00044401973313060763 0.0036008762555205819 -0.0071015948874068079 -0.0026145349088538272 0.0062061472285179836 -0.012426656989407417 0.01188493610694027 -0.004908143175351533 -0.0092833416403474631 -0.017358384177543408 0.005298852293929175 0.00031900649847616842 0.0096460257548158148 -0.0046741699968596449 0.0090171276066000443 -0.0060374844125852655 0.0054680581934295393 -0.00052350228929249449 0.003415499319316272 0.0062558112875918948 0.0084452747749427463 -0.0070494915165596221 -0.0052167959733646517 0.0014708686337955165 7.7669950851493833e-05 -0.014019716576720385 0.0012492679828546821 -0.0062505449902446088 -0.000526526915724104 0.0068099006746337792 -0.006973061862124692 -0.0026373708850493645 0.00055709612713581444 0.0077087015673390404 -0.015616531830703708 0.0028793802180761652 -0.0082281786477430927 -0.0015444692277003648 0.0076920300618323421 0.0078124252109951333 0.0065725112375489506 0.0017172519118764265 0.0052633635894421583 -0.00045798325682354639 0.0025910286934164562 -0.014691122340323383 0.0060742099526320467 -0.0050816579832036867 -0.009365673178708055 0.0031936790512570963 0.0002982382382366235
leaf_weight=98.279153883457184 739.40692234039307 202.05537301301956 757.05576749145985 133.20067331567407 147.12997342459857 119.35724294185638 29.526507571339607 421.38382510840893 69.753209836781025 164.67449121177197 11.541303575038908 62.786225572228432 1079.4265012443066 446.74932175129652 126.26429371722043 33.705766655504704 43.70745499804616 304.04683077335358 30.345931954681873 15.640646792948244 6.4661417901515987 20.454885013401508 87.071547515690327 364.49671286344528 31.222559601068497 6.8334251046180716 16.072764784097672 741.54212807863951 58.266557849943638 479.55937124043703 128.60410653054714 297.77423411607742 119.60793722420931 671.78752239048481 60.681269131600857 153.6257605701685 8.0715557336807233 41.550059795379639 77.822920955717564 167.83206470310688 174.05515357851982 28.411269351840019 156.82780931890011 304.07075995206833 37.632900208234787 152.67990830540657 28.442758113145828 20.606817156076431 198.37960493564606 21.535941287875175 44.459103308618069 400.41660890728235 223.79535461962223 150.08587056398392 17.374173909425735 275.55668179690838 8.0883756875991804 51.768063776195049 111.61074231564999 18.246692284941673 17.637979678809643 51.545046374201775
leaf_count=391 2353 305 3691 533 280 423 55 2586 145 805 73 156 2202 2039 457 79 246 391 88 48 21 51 239 518 93 9 43 1333 176 988 214 423 502 2757 184 450 17 67 325 493 273 59 444 833 78 1233 55 81 641 47 87 711 504 278 38 587 22 112 342 64 41 97
internal_value=4.09575e-12 0.00334202 -0.00623038 0.00249603 0.00101435 0.00378531 -0.00180997 -0.00951536 -0.00370259 -0.0116896 -0.00401521 0.00402555 0.00270518 -0.00499292 0.00235927 0.0026951 -0.00469593 0.00949659 0.00280532 0.0032216 0.00334537 0.00188366 0.00436814 0.00821486 0.00336825 -0.00737927 0.00481454 0.00489994 -0.0077815 0.00506944 0.00559822 0.00632106 -0.00491177 -0.00558672 -0.00466276 -0.000753516 0.00396745 -0.00123442 -0.00380406 -0.00233988 0.0045954 0.00296907 0.00049944 9.2039e-05 0.00134472 -0.0129773 -0.00204411 -0.000368707 0.000269878 -0.000639955 0.0046158 0.00541031 0.00272743 0.00344806 -0.00504183 0.000668017 0.00209821 -0.00117829 -0.00347388 0.00228045 -0.00319252 0.0045512
internal_weight=11068.6 7204.22 3864.39 6333.62 2946.92 3386.7 950.621 1680.5 2183.89 745.572 2083.79 3288.42 1230.01 1344.39 1996.3 1870.03 422.563 870.599 100.099 1595.8 1580.16 650.493 929.669 566.552 1110.65 171.508 2058.41 2042.34 934.93 1979.56 1500 1039.32 177.874 1179.22 732.469 165.167 460.68 49.6216 378.856 245.655 411.058 237.003 528.058 498.531 341.704 574.064 56.854 274.228 253.621 219.916 905.828 637.574 268.254 237.157 23.8403 503.363 283.645 219.718 132.066 87.6527 35.8847 180.149
internal_count=32876 15785 17091 14571 7737 6834 3007 9002 8089 4633 7856 6443 2718 5503 4730 4273 1597 1214 233 3425 3377 1499 1878 823 2295 814 3725 3682 4369 3526 2538 1756 678 4980 2941 523 782 84 1351 818 698 425 1410 1355 911 3819 114 848 767 688 1819 1228 591 517 59 1219 609 610 393 217 105 311
is_linear=0
shrinkage=0.01


Tree=5
num_leaves=63
num_cat=0
split_feature=20 17 20 15 17 20 2 20 17 2 18 17 20 19 17 11 12 16 20 18 17 9 3 18 9 3 6 17 10 11 17 20 11 2 20 11 18 9 14 20 17 9 18 9 19 16 20 2 6 18 2 2 1 2 14 2 19 20 17 2 0 3
split_gain=2098.07 337.773 301.429 108.537 107.118 57.6199 56.7555 55.1598 44.805 34.6473 41.353 32.9428 29.7375 29.6682 29.6235 28.82 27.1092 25.3124 29.7366 21.3175 16.9983 16.3937 23.7344 20.4499 18.2974 15.6882 15.416 24.5339 15.155 14.7029 14.9507 16.1427 14.5254 14.5125 18.2121 14.3405 18.9468 14.2884 14.2807 30.0909 27.2084 19.915 14.0645 17.7428 13.6672 13.307 13.2884 13.2614 15.1085 13.1328 13.9782 13.0777 13.0558 12.8597 12.8027 16.0071 14.7247 12.7943 19.8951 24.9441 12.588 12.6432
threshold=3.5577777777777784 0.57518796992481214 5.0102040816326534 1.0000000180025095e-35 0.12933094384707292 6.1702898550724647 413.50000000000006 1.3666666666666669 0.37668918918918926 459.50000000000006 0.11162711685830735 0.069204980842911892 4.0923295454545459 0.11232084082128289 0.84523809523809534 0.86607142857142871 1.5000000000000002 150.00000000000003 3.0263157894736845 0.11500935440108802 0.49137931034482768 978.50000000000011 12.500000000000002 0.11236014105764894 537.50000000000011 5.5000000000000009 1.5000000000000002 0.21132376395534294 2.5000000000000004 0.81666666666666676 0.30602006688963218 2.6794871794871802 0.84523809523809534 461.50000000000006 2.9666666666666672 0.88194444444444453 0.11599848887401652 2694.5000000000005 1.0000000180025095e-35 -1.0000000180025095e-35 0.49137931034482768 1413.0000000000002 0.11432788440878407 2675.5000000000005 0.11544664107169166 1.0000000180025095e-35 7.4409722222222232 449.50000000000006 1.5000000000000002 0.11218582628963496 537.50000000000011 439.50000000000006 1.5000000000000002 502.50000000000006 1450.0000000000002 490.50000000000006 0.11582500401456529 2.8366666666666673 0.074350469872857941 432.50000000000006 1450.0000000000002 1.0000000180025095e-35
decision_type=2 2 2 2 2 2 2 2 2 2 2 2 2 2 2 2 2 2 2 2 2 2 2 2 2 2 2 2 2 2 2 2 2 2 2 2 2 2 2 2 2 2 2 2 2 2 2 2 2 2 2 2 2 2 2 2 2 2 2 2 2 2
left_child=1 3 8 6 7 15 -1 16 12 10 -8 46 54 32 25 -4 47 18 21 -10 28 23 -23 -6 29 35 -15 -28 -12 30 -25 53 -14 -26 -35 36 -3 52 -11 40 41 -40 -27 -44 45 -43 -7 -5 -49 -17 -51 -39 -22 -32 55 56 -2 -9 59 -59 -57 -62
right_child=2 14 5 4 17 11 9 57 19 38 20 -13 13 26 -16 49 -18 -19 -20 -21 37 22 -24 24 33 42 27 -29 -30 -31 31 -33 -34 34 -36 -37 -38 51 39 -41 -42 44 43 -45 -46 -47 -48 48 -50 50 -52 -53 -54 -55 -56 60 -58 58 -60 -61 61 -63
leaf_value=-0.0041485105114827166 -0.0012689760484179686 0.0079348413718937361 -0.0086078975219277473 -0.0064248190001986172 0.0051489965674632945 -0.011813028171857158 -0.0033054241635326561 0.0025256047953250904 0.0057174461976830515 0.0050541796655102422 0.0028257428094644928 -0.0074829949916347324 -0.0024192718962997217 -0.0068840331262634341 0.011649152678101656 0.0044493252266908073 -0.012374262058239936 -0.0022121507035103988 -0.00044825224950553142 -0.0046824622854869657 -0.0048997265588463868 0.0038775009904617936 -0.01311021512562969 -0.0037569893400064957 -0.0073368648572499553 0.0089589323478017468 -0.0050604683014677668 0.0014492551447551775 -0.0057246291364635247 0.0085000032981912728 0.006961513559705962 -0.00713947735208723 0.0047486022992269993 -0.0025573914523084485 0.0084446439463010652 0.012622058012849408 -0.0085664043588412064 0.0046469450453392753 -0.0054720181873749909 0.0075463859309993376 0.0042711532940562782 -0.00020010607599800712 -0.0043541861961788973 0.013170032724219826 -0.014045792728925437 0.0096445044042247872 -0.015413850593604528 -0.006202065412970012 -0.0007132894346681026 -0.0054744779262893787 0.013279131971494081 -0.012894017704187055 0.008703188745207294 -0.0035642589961711896 -0.003423412198729517 -0.00063128586681046898 -0.013363346138937917 -0.006540087386807919 -0.0038904990727885516 0.0026467120041591204 0.00014665730172123997 0.01427362550840082
leaf_weight=91.076403640210629 237.07971576601267 404.78202468156815 759.62872807681561 122.45479456707835 108.93737716600299 369.07850151509047 111.07752418518066 174.49202826619148 73.445629924535751 1650.7465369477868 932.97129285335541 150.00649187713861 127.73223589360714 427.3282295614481 304.08128243684769 16.085972726345062 40.567082162946463 116.43518015369773 272.68899944424629 26.938775882124901 7.5601494014263144 1127.7551621571183 8.2849119305610639 45.599802933633327 43.869396574795246 23.644350230693817 656.50319224596024 63.494348019361496 21.200452446937561 31.402217850089073 62.538280159235001 12.757222861051558 36.307463556528091 76.046054042875767 18.756748199462891 67.555600762367249 7.0799934267997733 11.737083315849306 74.230603531002998 102.58946136385202 143.09230422973633 36.636321701109409 29.557539314031601 7.1812969148159018 4.8097008019685736 21.960836581885815 141.8868792578578 71.905098013579845 165.7550191283226 161.87519027292728 4.0745385885238639 6.6633073687553397 105.74510690569878 14.252250723540781 408.60894124954939 26.811114482581615 10.512931317090986 35.573106177151203 129.42831788957119 174.72063017636538 10.075259141623976 17.065978705883026
leaf_count=391 741 596 3923 533 211 2391 423 424 145 2886 2021 738 439 2039 405 37 246 457 848 88 16 2364 35 146 132 34 2757 184 81 66 139 44 84 214 40 88 18 17 268 166 231 105 64 9 20 49 1233 325 493 671 9 11 149 34 1422 82 45 122 430 434 34 29
internal_value=-8.18767e-13 0.00321865 -0.00606667 0.00240785 0.00097768 -0.00934009 0.0036366 -0.00184282 -0.00359432 0.00385604 0.00250612 -0.0116033 -0.00391813 -0.00481067 0.00915284 -0.0077515 -0.00462444 0.00230828 0.00259702 0.00292657 0.0031006 0.0031327 0.00375361 0.00142953 0.000102005 0.00774661 -0.00537941 -0.0044864 0.00263576 0.00233614 0.000903934 0.00327739 -0.000832782 -0.00258126 -0.000380637 0.00835164 0.00765118 0.00646822 0.00465041 0.0029116 0.00121787 -0.00195642 0.00294299 -0.000928748 0.0021593 0.00348942 -0.0128129 -0.00375142 -0.00237394 -0.00417777 -0.00501402 -0.00170514 0.00779555 0.00500794 -0.00226997 -0.000706995 -0.00178251 0.000324653 -0.000805826 0.00109268 0.00422865 0.00902947
internal_weight=10744.7 7020.2 3724.54 6176.32 2854.22 1602.64 3322.1 914.896 2121.9 3231.02 1196.95 660.972 2021.52 1311.37 843.882 941.664 400.682 1939.32 1822.89 100.384 1085.88 1550.2 1136.04 414.159 305.222 539.801 1147.33 719.998 954.172 166.55 135.148 89.5478 164.04 138.672 94.8028 479.418 411.862 131.706 2034.07 383.319 280.73 137.637 60.3832 36.7388 63.4069 58.5972 510.965 360.115 237.66 182.036 165.95 18.4004 113.305 76.7905 710.154 301.545 247.593 514.214 339.722 210.294 53.9524 27.1412
internal_count=32876 15785 17091 14571 7737 9002 6834 3007 8089 6443 2718 4362 7856 5503 1214 4640 1597 4730 4273 233 2295 3425 2399 1026 815 809 4980 2941 2102 429 363 217 523 386 254 702 614 193 3725 839 673 442 107 73 174 154 3624 1351 818 717 680 28 165 173 2353 931 786 1410 986 556 145 63
is_linear=0
shrinkage=0.01


Tree=6
num_leaves=63
num_cat=0
split_feature=20 17 20 15 17 20 20 2 17 17 17 2 18 18 20 17 0 11 19 2 18 17 1 19 16 9 16 9 2 18 12 20 3 18 11 9 2 18 9 11 12 2 2 20 16 17 14 20 13 18 14 17 16 19 9 10 1 11 19 3 2 11
split_gain=1914.24 311.158 287.526 92.5009 97.8251 51.7438 51.7242 48.1874 39.4078 36.3231 31.6835 28.905 33.5664 27.1632 30.7997 24.5874 23.1003 22.459 22.4386 22.4323 20.9914 18.1219 16.5397 15.4619 14.8562 14.6468 14.3698 14.2267 19.7074 18.9074 14.7562 16.3843 16.8057 13.5819 19.4171 14.0731 15.8715 13.4941 13.4536 14.9738 17.6338 14.0513 13.907 13.225 13.2036 14.9946 16.8897 13.0531 12.9235 15.5871 17.6068 24.1857 15.437 15.4919 15.9751 15.6826 14.011 20.3808 13.6374 17.2022 15.0565 13.973
threshold=3.5577777777777784 0.57518796992481214 5.0102040816326534 1.0000000180025095e-35 0.12933094384707292 6.0690476190476197 1.3666666666666669 413.50000000000006 0.28062500000000007 0.069204980842911892 0.67333333333333345 459.50000000000006 0.11162711685830735 0.11232084082128289 4.0923295454545459 0.28062500000000007 1600.0000000000002 0.86607142857142871 0.11223220223182219 534.50000000000011 0.11599848887401652 0.49137931034482768 4.5000000000000009 0.11607884780140705 1.0000000180025095e-35 15.500000000000002 250.00000000000003 1684.5000000000002 431.50000000000006 0.11299801385791751 1.5000000000000002 2.477272727272728 -8.4999999999999982 0.11193313942309009 0.6515151515151516 1062.5000000000002 473.50000000000006 0.11299801385791751 2943.5000000000005 0.76388888888888895 1.0000000180025095e-35 449.50000000000006 457.50000000000006 2.0416666666666674 -249.99999999999997 0.46410256410256417 1450.0000000000002 7.4409722222222232 1450.0000000000002 0.11518549323208928 1450.0000000000002 0.49137931034482768 1601.0000000000002 0.11511002242013753 2417.0000000000005 4.5000000000000009 1.5000000000000002 0.21111111111111114 0.11398129512351393 -5.4999999999999991 520.50000000000011 0.23611111111111113
decision_type=2 2 2 2 2 2 2 2 2 2 2 2 2 2 2 2 2 2 2 2 2 2 2 2 2 2 2 2 2 2 2 2 2 2 2 2 2 2 2 2 2 2 2 2 2 2 2 2 2 2 2 2 2 2 2 2 2 2 2 2 2 2
left_child=1 3 8 7 6 17 16 -1 13 47 -3 12 -9 22 -15 18 -5 -4 -6 -11 26 38 -2 25 -20 -13 -12 28 -17 43 31 32 -29 34 -8 -35 -37 -19 39 40 -14 -41 -40 -30 -10 -46 -47 -7 49 50 52 -52 53 54 55 58 -51 -58 59 -27 -60 -61
right_child=2 10 5 4 15 9 33 11 44 19 20 23 21 14 -16 27 -18 37 24 -21 -22 -23 -24 -25 -26 48 -28 30 29 -31 -32 -33 -34 35 -36 36 -38 -39 42 41 -42 -43 -44 -45 45 46 -48 -49 -50 56 51 -53 -54 -55 -56 -57 57 -59 60 61 -62 -63
leaf_value=-0.0038980376057668664 -0.004443900392582272 0.0064485384719879437 -0.0083568686228932005 -0.0037363705602869251 0.0066136808589798285 -0.011604724314058882 -0.0037282673524748999 -0.0029790906667673915 0.018716899310410012 -0.0078994627996393611 0.011199180861202597 -0.0079751286826857896 -0.011626434727532085 -0.0025102381111620827 -0.0053708555367467763 -0.0057492915537474308 -0.011993918074338011 -0.00038008269469478706 0.0012303540665804513 0.010192029439029842 -0.0030102518751560893 0.0064579635843752302 0.0014989586211049957 -0.0059456700811334473 -0.0020769172152305566 0.00012498805553394686 0.0036593563914903973 -0.0089203651660315769 0.0067159156792520212 0.0011182549056695309 -0.002563094457108115 0.0017881893309768286 0.0063782038395731955 -0.0026303596917515294 0.014005860330628646 -0.00059081868790121614 0.0039513825859949702 -0.0063385493435874334 0.0073178499357023268 0.0023815040166686821 0.0014092752327881208 0.0072686942776252466 -0.0087865058944220902 0.0018095502873368675 -0.0013281277126508981 -0.0056149462642895174 0.0078152559773029904 -0.015232619394364297 0.0030537856065005684 -0.0037970871726146238 -0.0057173333328338514 0.008404437743417632 0.0011230440002646463 0.01037973883202859 0.0024030741027428219 -0.0088442782048476359 0.015692615606644426 0.0030647601812229422 0.0082018189612962575 0.00093161719448465801 0.00064734619593366874 0.0065458786581416529
leaf_weight=86.931723406538367 71.091905772686005 325.35877013206482 689.78511910140514 345.07206017710268 63.773239806294441 383.70989054441452 9.903215706348421 105.73995637893677 3.9855566620826712 152.49340498447418 456.4442483484745 9.4503414034843427 10.568142883479593 581.6181577667594 1066.6121286898851 29.681976020336151 37.565919017419219 58.060992814600468 562.85776276141405 7.176226742565631 11.293476432561873 127.98094987869263 137.2331178188324 14.424157425761221 179.02008449286222 59.585029020905495 26.758950501680374 7.3390981256961814 141.84053205698729 343.57942710071802 27.984294265508652 123.02621157467365 332.25584699213505 146.7654247507453 16.395387127995491 207.6512428894639 122.19874636828899 110.04796681553125 79.488126158714294 172.04758438467979 574.05046728998423 89.39850378036499 5.7501521110534659 89.669210314750671 146.34619700163603 12.039840400218962 42.130910009145737 133.74346566200256 470.16003237292171 27.731193661689758 31.42436433583498 19.749893188476562 68.505638137459755 75.733184784650803 128.95251645892859 6.900811254978179 13.387783490121363 281.9487924054265 368.21654608100653 50.413698684424162 28.418704509735107 367.39068806171417
leaf_count=391 281 511 3691 1351 138 2586 27 423 6 799 629 38 30 2008 4797 90 246 181 1517 15 27 193 406 43 591 129 47 23 297 890 94 293 589 442 23 622 296 497 149 384 1379 146 14 208 473 37 81 1233 1003 58 107 30 144 101 231 19 16 492 560 116 52 586
internal_value=3.77155e-12 0.00309014 -0.00591272 0.00230802 0.000968872 -0.00918924 -0.00177635 0.00344769 -0.00347246 -0.0112558 0.00887207 0.00364803 0.00239335 -0.00393139 -0.00436142 0.00224767 -0.00454706 -0.00755811 0.00092159 -0.00708635 0.0104667 0.00292964 -0.00052907 0.0043708 0.000432287 0.00444491 0.0107816 0.00322301 0.00219655 0.00260666 0.00448832 0.00491487 0.00604758 0.000331734 0.00732775 -5.42913e-05 0.00109192 -0.00428063 0.00244477 0.00206328 0.00117363 0.00405262 0.00623145 0.00481556 0.000693838 0.000335604 0.0048303 -0.0125424 0.00450364 0.00494965 0.00547249 -0.00026726 0.005727 0.00601752 0.00569039 0.0061716 0.00299905 0.00363719 0.00629016 0.00515158 0.00766055 0.00586844
internal_weight=10476.9 6880.78 3596.07 6060.93 2786.58 1535.02 885.552 3274.35 2061.06 677.123 819.855 3187.42 1165.02 1856.56 1648.23 1901.03 382.638 857.894 805.651 159.67 494.497 1059.28 208.325 2022.39 741.878 2007.97 483.203 1095.38 604.771 575.089 490.605 462.621 339.595 502.914 26.2986 476.615 329.85 168.109 931.303 846.065 584.619 261.446 85.2383 231.51 204.503 200.517 54.1708 517.453 1998.52 1528.36 1205.29 51.1743 1154.12 1085.61 1009.88 880.925 323.068 295.337 874.025 477.389 396.635 417.804
internal_count=32876 15785 17091 14571 7737 9002 3007 6834 8089 4633 1214 6443 2718 7492 6805 4730 1597 4369 2246 814 703 2295 687 3725 2108 3682 676 2484 1485 1395 999 905 612 1410 50 1360 918 678 2102 1939 1409 530 163 505 597 591 118 3819 3644 2641 2075 137 1938 1794 1693 1462 566 508 1443 831 612 702
is_linear=0
shrinkage=0.01


Tree=7
num_leaves=63
num_cat=0
split_feature=20 17 20 17 17 20 20 2 20 17 17 17 18 20 16 9 16 19 1 17 11 18 10 2 14 16 2 15 18 19 20 6 9 9 3 11 10 3 9 2 2 17 17 13 10 11 12 19 9 2 2 18 18 20 20 16 6 1 14 10 9 15
split_gain=1794.61 290.28 266.006 85.6173 137.815 82.2138 71.7938 43.0808 34.7548 33.5097 31.9598 30.9253 29.0739 28.9203 27.2104 24.4105 22.4358 21.0254 25.3884 21.7941 19.3683 19.264 19.1388 19.0913 18.2749 16.8206 16.4893 16.4878 16.3021 15.5412 16.5377 15.2359 15.1375 15.0376 14.3053 14.2385 15.393 15.0687 14.0623 14.5704 16.301 13.8029 13.4765 13.0032 13.4377 13.1332 14.4533 12.6873 12.6234 16.7311 15.9697 12.6752 15.2238 12.5361 12.4341 12.3194 12.0558 11.889 11.8771 14.3071 12.2912 11.1917
threshold=3.5577777777777784 0.57518796992481214 4.7533783783783798 -1.0000000180025095e-35 0.26365441906653431 -1.0000000180025095e-35 6.0690476190476197 459.50000000000006 2.759615384615385 0.069204980842911892 0.28062500000000007 0.67333333333333345 0.1109494344256655 3.0263157894736845 150.00000000000003 617.50000000000011 150.00000000000003 0.11422126482350527 6.5000000000000009 0.42640692640692646 0.23611111111111113 0.11232084082128289 2.5000000000000004 403.50000000000006 1150.0000000000002 -249.99999999999997 534.50000000000011 1150.0000000000002 0.11599848887401652 0.11517661934165994 2.3484848484848491 1.0000000180025095e-35 2943.5000000000005 2034.5000000000002 -12.499999999999998 0.15476190476190479 1.5000000000000002 -2.4999999999999996 2227.5000000000005 559.50000000000011 545.50000000000011 0.46410256410256417 0.041381278538812787 1600.0000000000002 2.5000000000000004 0.76388888888888895 1.0000000180025095e-35 0.11603194846730881 1009.5000000000001 438.50000000000006 498.50000000000006 0.11227853967205599 0.11279029839360083 3.1702898550724643 7.4409722222222232 250.00000000000003 1.5000000000000002 4.5000000000000009 1950.0000000000002 3.5000000000000004 972.50000000000011 1600.0000000000002
decision_type=2 2 2 2 2 2 2 2 2 2 2 2 2 2 2 2 2 2 2 2 2 2 2 2 2 2 2 2 2 2 2 2 2 2 2 2 2 2 2 2 2 2 2 2 2 2 2 2 2 2 2 2 2 2 2 2 2 2 2 2 2 2
left_child=1 3 10 7 5 14 17 12 16 54 21 -3 -1 29 15 -5 -6 18 19 -4 -17 57 53 -14 -22 -12 -11 -10 55 31 56 61 34 47 -25 36 -33 -37 39 40 -9 -27 -35 44 45 46 -36 -23 49 -39 -50 -51 -53 -15 -8 -13 -31 -2 59 60 -29 -7
right_child=2 11 6 4 8 13 9 38 27 26 25 28 23 22 -16 20 -18 -19 -20 -21 24 33 -24 32 -26 41 -28 58 -30 30 -32 35 -34 42 43 37 -38 48 -40 -41 -42 -43 -44 -45 -46 -47 -48 -49 50 51 -52 52 -54 -55 -56 -57 -58 -59 -60 -61 -62 -63
leaf_value=-0.0039984634761091866 -0.003889606207937788 0.0062829588139053797 -0.0075356930713802259 -0.0060090830504131321 0.0045812365288731066 -0.0042281557082490305 -0.011405757000472702 0.0051354174703964499 -0.010980221742026921 -0.0077586991078082744 0.018507711151581129 0.010981631703533577 -0.0068139632365486792 -0.0072016027295203908 -0.0089620461565383912 -0.0056346276002050503 -0.00096072911519984316 -0.0079787319695205344 -0.0023019648608597113 0.012687086139699235 -0.010833814060955127 -0.0041870412964215217 -0.0097753606891445976 -0.0060496105250099144 -0.00032675398363166027 -0.0011629878476036193 0.0070631131794161904 -0.0026273491453210522 -0.0021389393017863141 -0.001004712994256349 -0.0021150791788962561 0.0030858421736348206 0.006592082453967172 -0.0041806551672218563 -0.011267164242580015 0.0013484018182682756 -0.0085731080577134376 -0.0090482008723141768 0.0028934697534350978 0.016906598836364528 -0.008535135680551564 0.0051472901775325196 0.00017965397198168039 -0.011447258637621891 -0.0085390061381649049 0.0047087095701217113 0.0020421932218372615 -0.012529842230983893 0.0056302430196201268 0.0098358444353863414 0.012758372000282601 -0.0042797467557385569 0.0052768450319040615 6.4346250013181704e-05 -0.015030230358935916 0.0038912263967751043 0.0079577981981334579 0.0018109598251987 0.016518199175354707 -0.010040235273808151 0.0026565700279124692 0.0041166804023193438
leaf_weight=75.840920969843864 55.372022211551666 317.82437062263489 273.07863469421864 149.18907093256712 1143.3113184422255 44.205003958195448 370.48084614425898 1233.3309591561556 12.907446056604384 146.51076064258814 5.3910243809223166 439.69856138527393 21.628028810024261 25.542218506336212 68.995766185224056 94.317324638366699 78.034792140126228 752.016077876091 177.5285918712616 5.4351991862058631 17.147110272198915 995.90561034530401 23.411143496632576 20.272122371941805 478.23756879195571 126.06457734107971 7.911115735769271 64.952206831425428 10.28941762447357 25.981426626443863 130.71236532926559 29.642137460410595 89.331004530191422 127.07226709276438 8.3048746362328512 120.62606284022331 18.324700206518173 10.852026879787443 359.34532588720322 10.431765198707579 8.7846403121948224 47.809718638658524 160.30233836174011 6.6540722474455825 10.675436250865458 232.98316166549921 465.49434811994433 18.568152695894241 175.72776844352484 27.281204879283905 38.276143535971642 26.042952448129654 46.31231626868248 337.53465269505978 127.13012438267469 25.950822487473488 35.536516398191452 107.83440735936165 4.6176597811281672 12.574826031923292 136.62550984323025 25.252850778400898
leaf_count=355 216 511 1471 647 2214 144 2586 2208 36 799 6 629 114 96 407 390 275 4024 679 9 74 3990 103 62 1580 404 15 207 27 63 356 66 157 555 34 298 56 35 649 11 18 100 610 26 45 443 1114 92 386 45 58 79 114 1057 1233 47 67 302 9 43 358 72
internal_value=-9.78245e-12 0.00301836 -0.00580434 0.00226001 0.00122249 -0.000515246 -0.00839472 0.00364803 0.00355356 -0.0110689 -0.00287404 0.00869838 0.0019356 0.00121271 -0.00295624 -0.00239544 0.00422715 -0.00695138 -0.00525728 -0.00714105 -0.00148122 -0.00336171 -0.00101188 0.00246175 -0.000690442 0.00111151 -0.00699937 2.57988e-06 0.0103114 0.00235183 -0.000102889 0.00319064 0.00270238 -0.00376772 0.00223559 0.00380831 -0.00136821 0.00436614 0.00463729 0.00513758 0.00503873 0.000572131 -0.0017484 0.00246754 0.0025966 0.00276479 0.0018089 -0.00433974 0.00548795 0.00274298 0.00690516 0.00402723 0.00183713 -0.000446808 -0.0123317 0.0105865 0.00417258 -0.000123105 0.000650565 0.00030842 0.00095399 -0.00119422
internal_weight=10243.4 6739.01 3504.41 5945.25 3402.17 1949.15 1860.09 2543.08 1453.02 652.033 1644.32 793.763 931.184 1141.26 807.887 738.891 1221.35 1208.06 456.042 278.514 589.702 1465.05 386.488 855.343 495.385 179.265 154.422 231.678 475.939 754.773 192.23 562.543 833.715 1301.85 744.384 493.085 47.9668 445.118 1611.89 1252.55 1242.12 173.874 287.375 724.112 717.458 706.782 473.799 1014.47 324.492 110.489 214.004 99.6365 72.3553 363.077 497.611 465.649 61.5179 163.206 218.77 214.153 201.578 69.4579
internal_count=32876 15785 17091 14571 9335 6193 10816 5236 3142 4633 6275 1214 2350 3095 3098 2691 2489 6183 2159 1480 2044 5765 1256 1995 1654 510 814 653 703 1839 486 1353 1881 5247 1724 1137 122 1015 2886 2237 2226 504 1165 1662 1636 1591 1148 4082 717 273 444 238 193 1153 3819 676 130 518 617 608 565 216
is_linear=0
shrinkage=0.01


Tree=8
num_leaves=63
num_cat=0
split_feature=20 17 20 15 17 20 20 2 17 17 17 2 18 3 11 16 20 3 1 18 17 12 3 18 20 2 2 17 13 10 19 19 9 2 2 19 16 18 1 18 13 10 18 9 16 17 2 14 1 20 19 2 16 9 18 11 10 18 9 2 6 11
split_gain=1674.8 271.415 247.985 80.7825 87.7809 67.6234 49.5748 42.3733 32.6244 32.1145 29.4511 27.9538 24.9091 31.0933 24.2639 23.4748 22.5437 20.9207 19.4166 21.067 20.5001 18.5421 16.8375 16.7927 17.8097 16.4357 15.8623 15.6457 15.0478 14.6681 13.9802 13.8517 23.6985 13.3294 13.1676 13.0525 12.9843 12.9195 12.5077 16.7159 14.9173 13.9351 12.7366 13.7739 12.5072 15.7729 13.2371 14.3008 12.4293 12.154 11.9015 11.8805 11.846 11.8434 16.3378 11.6864 13.9587 12.5039 11.6217 13.1768 14.3264 11.4945
threshold=3.5577777777777784 0.57518796992481214 4.7801932367149762 1.0000000180025095e-35 0.12933094384707292 6.0690476190476197 1.3666666666666669 413.50000000000006 0.67333333333333345 0.069204980842911892 0.27361853832442073 483.50000000000006 0.11162711685830735 24.500000000000004 0.63068181818181823 1.0000000180025095e-35 2.759615384615385 -12.499999999999998 6.5000000000000009 0.11517957505078653 0.42640692640692646 1.5000000000000002 -8.4999999999999982 0.11232084082128289 4.0923295454545459 542.50000000000011 435.50000000000006 0.26365441906653431 1800.0000000000002 1.5000000000000002 0.11599848887401652 0.11233360043004152 1831.5000000000002 477.50000000000006 417.50000000000006 0.11197571937639531 350.00000000000006 0.11234633220642236 7.5000000000000009 0.11500935440108802 1600.0000000000002 2.5000000000000004 0.11547727859025618 2788.5000000000005 1.0000000180025095e-35 0.49137931034482768 445.50000000000006 1450.0000000000002 3.5000000000000004 7.4409722222222232 0.11403256851608974 458.50000000000006 250.00000000000003 301.50000000000006 0.11506240787884463 0.55050505050505061 4.5000000000000009 0.11249341740566891 1981.5000000000002 447.50000000000006 1.5000000000000002 0.78888888888888908
decision_type=2 2 2 2 2 2 2 2 2 2 2 2 2 2 2 2 2 2 2 2 2 2 2 2 2 2 2 2 2 2 2 2 2 2 2 2 2 2 2 2 2 2 2 2 2 2 2 2 2 2 2 2 2 2 2 2 2 2 2 2 2 2
left_child=1 3 10 7 6 18 21 -1 36 49 23 12 14 17 -9 16 22 50 20 37 -4 -5 -6 -2 -25 -11 -16 51 -12 -18 52 35 -33 -28 -29 61 -3 -20 40 -40 42 -42 43 -13 45 53 -46 -48 -47 -7 -14 -17 -10 54 -19 58 57 -57 59 60 -31 -24
right_child=2 8 5 4 15 9 -8 11 30 25 28 38 13 -15 26 27 29 44 19 -21 -22 -23 31 24 -26 -27 33 34 -30 55 -32 32 -34 -35 -36 -37 -38 -39 39 -41 41 -43 -44 -45 46 48 47 -49 -50 -51 -52 -53 -54 -55 -56 56 -58 -59 -60 -61 -62 -63
leaf_value=-0.0037644219206259726 -0.00030168801974986823 0.0063105478430292407 -0.0079296501343375687 -0.0037888721434535841 -0.0039771779865900841 -0.011219370055879248 0.00035833797147968589 -0.0037642320890089562 0.010855269958668614 -0.0075431390062687259 0.00033601580659768675 0.0045587419088716696 -0.016177102045901833 -0.015564717205503294 -0.0067983409021891289 -0.0054450813622776255 0.0024444731505207985 -0.008804894242891605 0.00024505236326375501 -0.0093935263744885106 0.0066510464848727659 -0.011461182850244469 0.0043182011744457086 -0.0023607880240545877 -0.0047416767129626145 0.009040304253550617 0.0062100095772581344 -0.015845515818283397 0.015287996583158159 -0.007506353538407156 -0.0018409610188588783 0.0019810219837494399 0.0053363748572995955 -0.0054289633230461118 0.0019221897102683454 0.0093226465123536269 -0.0082495114764380775 -0.0048308873923239336 0.0087796694230412083 0.0020390069993665876 -0.0051428741251809389 0.010883918603241335 0.00071775450355286523 0.0095342797518770516 0.0024123515668316121 0.0011993594605198194 0.0051197643341953968 -0.0032194113057954811 0.0076142834681239679 -0.014878769417829531 -0.0014819489665816598 -4.8431495716868722e-05 0.0038186743215930896 0.0020159541570001667 0.012906682662030577 0.0099048050533457731 -0.014666440754790523 0.00013059702406332656 0.0018657684566000636 -0.0096329188393935571 0.01301658361775037 -0.012185246386840756
leaf_weight=82.918957547284663 161.86615151166916 306.77547290921211 755.75392051041126 328.33519646339118 28.636385515332222 358.71778828650713 486.21375605463982 108.13237334787846 424.55562926828861 144.83127355575562 177.94445791840553 669.90719003602862 6.6517091765999785 8.8145060837268812 14.008972764015196 69.136104172095656 229.2755404189229 20.262901257723573 62.927960053086281 86.023023217916489 9.7673383206129056 34.842404155060649 27.936201671138406 550.39881297200918 732.05348395556211 6.2336033582687369 74.680220201611519 4.2390074357390395 6.9955751448869696 7.6003949865698797 9.4349051117897016 506.70314663648605 360.08373022824526 11.332885861396788 260.13399334996939 78.867887020111084 6.2495689094066611 246.81590487062931 146.76026152074337 49.097299590706825 28.478212963789701 6.7019703909754744 77.875463500618935 60.678500726819038 312.8362703435123 45.125701546669006 700.75747033208609 21.18597486615181 91.340942740440369 121.50280639529228 32.145266987383366 99.504416026175022 25.35345633327961 574.60305479168892 4.1809871792793265 15.794980458915232 5.4487407952547064 76.377705700695515 21.650289490818977 40.970436379313469 6.156729981303215 4.9713019430637351
leaf_count=391 521 495 4168 1351 75 2586 1410 403 629 805 519 1259 26 37 68 261 635 53 214 498 28 246 54 1997 3313 9 189 18 10 34 27 1223 705 29 710 140 16 1190 234 91 94 17 151 96 754 88 1263 70 141 1233 95 338 47 1280 5 30 24 230 63 166 11 13
internal_value=2.18766e-12 0.00293844 -0.00567942 0.00220181 0.000930231 -0.00824591 -0.00172962 0.00328939 0.00850951 -0.0108802 -0.00285567 0.00348018 0.00279619 0.00317139 -0.000480576 0.00215576 0.00278101 0.00326268 -0.00681388 -0.00501553 -0.00774361 -0.00452494 0.00358098 -0.00333678 -0.00371985 -0.00685883 0.00306934 0.000119134 0.000901592 0.000783047 0.0102061 0.00380216 0.00337491 0.00467649 0.0016373 0.0071153 0.00601986 -0.00379965 0.00481333 0.00708993 0.00428481 -0.0020897 0.00456219 0.00497198 0.00342187 0.00242489 0.00413052 0.00487504 0.00549305 -0.0121453 -0.00400142 -0.00226085 0.0104587 0.00172595 -0.00509125 -0.00140618 0.00088615 0.00180553 -0.0043361 -0.00678957 0.00167828 0.00182504
internal_weight=10035.6 6613.72 3421.83 5841.36 2692.88 1792.57 849.391 3148.48 772.369 631.285 1629.26 3065.56 2026.06 1817.9 208.154 1843.49 1410.47 1809.09 1161.29 395.767 765.521 363.178 1007.2 1444.32 1282.45 151.065 100.022 433.014 184.94 403.275 459.344 978.562 866.787 86.0131 264.373 111.775 313.025 309.744 1039.5 195.858 843.641 35.1802 808.461 730.586 1770.29 735.514 1034.78 721.943 136.467 480.221 38.797 168.641 449.909 599.047 24.4439 173.999 97.6214 92.1727 76.3779 54.7276 13.7571 32.9075
internal_count=32876 15785 17091 14571 7737 10731 3007 6834 1214 4633 6360 6443 4501 3812 689 4730 3403 3775 6098 1902 4196 1597 2210 5831 5310 814 286 1327 529 1193 703 2135 1928 218 728 207 511 1404 1942 325 1617 111 1506 1355 3654 1567 2087 1333 229 3819 121 599 676 1338 58 558 284 260 274 211 45 67
is_linear=0
shrinkage=0.01


Tree=9
num_leaves=63
num_cat=0
split_feature=20 17 20 14 20 17 17 17 20 17 2 20 18 16 18 20 9 2 19 19 11 10 9 16 20 2 3 15 20 11 18 3 2 19 2 16 12 19 2 9 15 2 9 2 9 11 14 11 3 12 9 16 3 16 3 2 16 9 11 2 11 19
split_gain=1576.67 266.767 236.152 120.088 80.3027 69.8105 44.2682 43.2028 38.0223 34.459 33.912 32.5741 31.0799 28.3608 26.3812 25.319 23.7836 24.6842 20.2094 20.1614 19.9438 19.9405 18.5964 16.4835 15.6588 15.4687 15.268 15.1418 15.0367 14.7981 14.3979 13.6703 13.6679 13.4677 34.3111 13.3739 13.14 12.7162 12.6023 15.7705 12.4731 12.1445 12.115 11.8772 11.7727 11.6662 11.6274 11.5007 21.2861 13.428 13.168 12.271 11.9266 11.496 11.327 12.2395 11.7199 12.9817 14.8324 16.0186 18.5307 14.4229
threshold=3.5577777777777784 0.49137931034482768 5.0851449275362333 -1.0000000180025095e-35 1.0000000180025095e-35 0.67333333333333345 0.1226279985678482 0.066228070175438608 6.8397435897435903 0.27361853832442073 459.50000000000006 3.0263157894736845 0.11415829804185053 150.00000000000003 0.1109494344256655 4.1647286821705434 768.50000000000011 437.50000000000006 0.11265122172054079 0.11213497585405238 0.86607142857142871 2.5000000000000004 2317.5000000000005 -249.99999999999997 2.6076923076923082 403.50000000000006 7.5000000000000009 -1.0000000180025095e-35 1.8452380952380956 0.6515151515151516 0.11599848887401652 5.5000000000000009 447.50000000000006 0.11605760126115423 515.50000000000011 -149.99999999999997 1.5000000000000002 0.11504355177697666 501.50000000000006 1114.5000000000002 -1.0000000180025095e-35 558.50000000000011 345.50000000000006 520.50000000000011 1661.5000000000002 0.94444444444444453 1950.0000000000002 0.88194444444444453 14.500000000000002 1.0000000180025095e-35 2943.5000000000005 1451.0000000000002 -3.4999999999999996 250.00000000000003 -6.4999999999999991 548.50000000000011 1601.0000000000002 1670.5000000000002 0.42261904761904767 509.50000000000006 0.21111111111111114 0.11431918431817135
decision_type=2 2 2 2 2 2 2 2 2 2 2 2 2 2 2 2 2 2 2 2 2 2 2 2 2 2 2 2 2 2 2 2 2 2 2 2 2 2 2 2 2 2 2 2 2 2 2 2 2 2 2 2 2 2 2 2 2 2 2 2 2 2
left_child=1 3 9 10 6 24 16 8 12 15 14 28 29 19 -1 35 -5 31 -17 -8 -9 -13 -14 -11 26 -16 -3 32 -6 -4 53 -18 -19 41 -35 -2 47 -25 -30 45 -26 54 -28 -22 -39 -40 -21 49 51 -27 52 -49 -51 -7 -12 56 57 58 59 61 -61 -56
right_child=2 5 7 4 11 30 13 20 -10 23 33 21 22 -15 25 18 17 27 -20 46 43 -23 -24 37 40 36 42 -29 38 -31 -32 -33 -34 34 -36 -37 -38 44 39 -41 -42 -43 -44 -45 -46 -47 -48 48 -50 50 -52 -53 -54 -55 55 -57 -58 -59 -60 60 -62 -63
leaf_value=-0.0039674633590380719 -0.011214073379793124 0.0059301214587471887 -0.0084258207794082433 -0.00671674942561861 0.0051958623909757638 0.010741759276531848 0.0098009419324777674 -0.0071803803773243966 -0.013588335997523474 0.017453895599969519 0.0021050502074943609 -1.2337012214458724e-05 -0.011593415841035905 -0.0052777585007875473 -0.0064014730132030961 -0.0021460043928815658 -0.0079083501849226794 0.0069777282886849396 -0.0054287782842219624 0.00074842957436770813 -0.0030565286691253712 -0.0086470682620553765 -0.006689506721481559 0.001744274346463548 -0.0094286745743104271 -0.0061518581447104507 0.011787474852813007 -0.0029670477145555029 0.0016423742462327038 -0.0038148352441889754 -0.0024764436041549019 0.0032072836571050913 -0.00025538144670497282 -0.012273136502508145 0.017853465018441463 -0.0020072684877864393 -0.005514027980142811 -0.0092720624560704689 -0.0012677147800022317 0.0070708396206351533 0.0024443279346154029 0.013922917435774108 -0.0025708989849308572 0.0091187864658093809 -0.00024068031173452649 0.01418572191355515 0.011185199453056207 0.0051064025032808262 -0.011271383339387042 -0.00042275554994433321 0.0066026527688015299 0.013836298750470833 0.002863459096325295 0.0037759959471636057 0.00031319061936164148 -0.0099659376912871276 0.00053987109320663374 0.0037228131803775039 0.0067223524174732366 -0.00070490803679816171 0.011928563648681683 0.0064329997912081728
leaf_weight=71.075503677129745 16.179166577756405 781.87519584596157 145.98868720978498 172.56910610571504 183.71420560777187 410.92669382691383 29.353422697633505 359.39548733830452 220.24946166574955 5.6042738482356063 198.57131373137236 442.90556283295155 343.17157666943967 66.197248078882694 19.576680779457092 239.19152499362826 91.285398758947849 33.684394404292107 868.25916946679354 295.43034273386002 73.624929927289486 28.463556945323944 99.823362359777093 137.77559123933315 10.479351267218588 18.498347468674183 7.0340607762336722 173.97262108325958 897.64609813317657 133.02074709534645 8.9448669552803022 12.589869134128092 116.406833127141 13.840947210788729 5.2008844017982474 635.71214887872338 19.500396933406591 23.59348488599062 47.431557897478342 100.46906673908234 56.84446993470192 13.323438942432402 35.706760227680206 8.9906286969780904 37.176008880138397 5.446058824658393 11.074743866920469 108.5784912481904 7.200605481863021 150.66079531237483 69.382704213261604 18.904805615544319 413.6874518468976 25.142027586698532 123.03815204277635 5.6944738179445258 63.701793346554041 521.91909009963274 517.39795459061861 16.253548935055733 40.642083987593651 56.055538147687912
leaf_count=355 93 1329 940 824 401 629 55 2062 2039 7 425 1418 2183 330 114 949 453 89 4228 803 326 137 652 385 33 58 12 704 2262 642 27 40 363 43 7 2339 69 99 140 193 133 16 94 21 126 9 24 200 18 389 119 32 996 47 285 17 138 898 861 39 59 98
internal_value=-8.68294e-12 0.0028649 -0.00557814 0.00183727 0.000382682 0.00684746 -0.00186344 -0.00874132 -0.0099513 -0.00334809 0.00343064 0.0017026 -0.00884181 0.000704629 0.00187859 -0.00379936 -0.00358282 -0.00231905 -0.00471975 0.00188375 -0.00616195 -0.000533744 -0.0104884 0.000540913 0.00523339 0.00238163 0.00561198 -0.000959294 0.00255636 -0.00622748 0.0100825 -0.00656112 0.00136792 0.00431428 -0.00404468 -0.00223577 0.00259486 6.35152e-05 0.00209497 0.00474433 0.000596225 0.00441653 -0.000207873 -0.00173155 -0.00374707 0.000323891 0.00112553 0.0027958 0.00545616 0.00224644 0.00249158 0.00640098 0.00198616 0.0103401 0.00433446 0.00466368 0.0047259 0.00493499 0.00577474 0.00369713 0.00831952 0.00222866
internal_weight=9866.05 6518.3 3347.76 5181.35 2708.64 1336.95 1002.56 1384.26 942.254 1963.49 2472.71 1706.08 722.004 402.056 897.066 1759.34 600.508 427.939 1107.45 335.859 442.011 471.369 442.995 204.149 891.94 825.99 824.616 324.064 1234.71 279.009 445.014 103.875 150.091 1575.64 19.0418 651.891 806.414 198.545 1050.99 153.347 67.3238 1556.6 42.7408 82.6156 60.7695 52.8776 306.505 786.913 134.684 652.229 633.731 127.483 564.348 436.069 1543.27 1344.7 1339.01 1275.31 753.387 235.989 56.8956 179.094
internal_count=32876 15785 17091 13481 8245 2304 3685 8865 6456 8226 5236 4560 4417 1212 2350 7609 2473 1649 5177 882 2409 1555 2835 617 1601 1995 1435 1156 3005 1582 703 493 452 2886 50 2432 1881 610 2604 342 166 2836 106 347 225 149 827 1812 250 1562 1504 232 1385 676 2820 2395 2378 2240 1342 481 98 383
is_linear=0
shrinkage=0.01


Tree=10
num_leaves=63
num_cat=0
split_feature=20 17 20 14 17 20 17 20 2 17 10 20 16 20 20 20 9 19 16 1 11 17 19 11 9 18 9 19 18 13 18 6 2 18 3 19 2 18 2 18 19 9 2 9 19 6 17 9 11 1 2 16 9 16 9 11 16 9 2 2 18 17
split_gain=1503.19 244.436 225.77 64.7201 133.721 71.3175 43.7858 38.7051 35.7895 31.1113 25.895 24.0841 22.8605 22.1513 21.8483 21.771 21.2222 20.9428 20.1515 18.6181 18.5193 17.6031 16.3198 14.9028 14.888 14.8716 17.3175 14.7976 14.4502 14.3793 13.9772 13.7526 13.5859 19.1401 14.8129 14.9413 13.2849 13.7355 13.1873 13.0292 12.6833 19.0632 13.3283 12.3796 27.0596 12.319 15.3128 12.304 12.1977 12.1846 12.0907 14.1077 22.3914 15.69 12.5592 11.986 11.9635 11.7521 11.6416 11.3333 11.1329 11.0678
threshold=3.5577777777777784 0.65686274509803932 5.0851449275362333 -1.0000000180025095e-35 0.26365441906653431 -1.0000000180025095e-35 0.066228070175438608 6.1277173913043486 445.50000000000006 0.37668918918918926 2.5000000000000004 4.0178571428571432 150.00000000000003 3.1702898550724643 2.477272727272728 3.0263157894736845 617.50000000000011 0.11232084082128289 150.00000000000003 5.5000000000000009 0.86607142857142871 0.67333333333333345 0.11415829804185053 0.26136363636363641 1915.5000000000002 0.11217052920224473 1041.5000000000002 0.11440097863243411 0.11599848887401652 1600.0000000000002 0.11500935440108802 1.0000000180025095e-35 492.50000000000006 0.11020168911644378 -4.4999999999999991 0.11605760126115423 498.50000000000006 0.1155133182609879 462.50000000000006 0.11514122459183074 0.11431040692021176 267.50000000000006 418.50000000000006 1629.5000000000002 0.11243994045988019 1.5000000000000002 0.21132376395534294 1242.5000000000002 0.21111111111111114 7.5000000000000009 448.50000000000006 1451.0000000000002 1394.5000000000002 1300.5000000000002 1670.5000000000002 0.81666666666666676 250.00000000000003 3262.5000000000005 460.50000000000006 520.50000000000011 0.11523274475685545 0.066228070175438608
decision_type=2 2 2 2 2 2 2 2 2 2 2 2 2 2 2 2 2 2 2 2 2 2 2 2 2 2 2 2 2 2 2 2 2 2 2 2 2 2 2 2 2 2 2 2 2 2 2 2 2 2 2 2 2 2 2 2 2 2 2 2 2 2
left_child=1 3 9 8 5 12 7 22 29 11 15 -2 16 21 18 25 -5 48 43 55 -8 -3 23 -4 -24 -7 38 -21 -23 39 -11 -29 33 -10 50 -36 -28 -38 -27 40 41 -1 47 44 49 -19 -47 -43 -13 -6 -35 52 53 -52 -53 58 -54 -41 -18 -22 -60 -17
right_child=2 13 6 4 14 10 20 -9 32 30 -12 17 -14 -15 -16 61 19 45 -20 27 59 28 24 -25 -26 26 36 31 -30 -31 -32 -33 -34 34 35 -37 37 -39 -40 57 -42 42 -44 -45 -46 46 -48 -49 -50 -51 51 54 56 -55 -56 -57 -58 -59 60 -61 -62 -63
leaf_value=-0.01200994099683798 -0.0019710906010461859 0.0063920921246263798 -0.011526437592991708 -0.0058603107718876758 0.005585602320671808 0.0080628788780741541 -0.0070418592541527086 -0.012085799434385456 -0.00056810627214506102 0.0045572125445210035 -0.0043201459268235268 -0.011166611816434819 -0.0086320976540660548 -0.0099857192295886316 0.0014174131783921305 0.0019674176348551042 -0.0047546297928541207 -0.006290076266181689 -0.0004257705879034597 0.0027827936397696452 -0.0030749614487553447 0.010318975313462982 -0.011145160965459495 -0.0042525732779124829 -0.006520904431405552 -0.0048721050677816959 0.0024563695725345956 -0.015789582289451775 -0.0028167595723279405 -0.016534445150889584 -0.0045547404026852071 -0.0012415133667474209 0.0052782530481021977 0.010627352052038774 0.0045390015493900603 -0.0072072185622790354 0.0087395151441133547 -0.0047299453280265956 0.0013160868543099281 0.0026737791214316532 -0.0024351366968146482 -0.0092868441359355205 0.0034937807835798301 0.0056061000576175628 0.0019226567954595734 -0.004530714485648301 0.0008804461368266004 0.0015455495307125206 -0.00011330013584977867 0.012765996905572745 0.0085145579591475572 -0.0074882670350659274 -0.0032182879084311973 -0.0029471283779267353 0.0023638795240130909 -0.015836753794670175 0.0047237415878368704 0.011880337879330953 0.00036904724120208316 0.0087429346237834424 -0.0067672368863992598 -0.0017676854549339305
leaf_weight=9.8811881057918054 603.08741076290607 188.20526786148548 34.696960475295782 138.65675776824355 113.60383278876543 46.608196616172791 348.9556702375412 430.40101172029972 107.52761363983154 69.648245427757502 81.296790897846222 10.755312491208313 63.387173790484667 6.2446270585060111 383.39482045173645 121.60724261403084 152.77936840802431 399.20900445804 87.584115196019411 135.71927344426513 72.641419433057308 422.04577742516994 185.48537661507726 149.66187958791852 111.45960025116801 50.16832160949707 379.69556364417076 6.9437276832759371 8.5441377162933332 4.5765128731727591 22.200299944728613 101.21159506589174 614.4392556399107 13.991325251758097 930.55211914330721 10.956567764282225 63.600805386900902 8.5938220769166929 109.82574605941772 165.02622483670712 123.68444012105465 17.223844964057207 166.74355711042881 546.21901671588421 350.19755886867642 627.80252672731876 57.048948146402836 26.803433418273926 139.16802848130465 29.840256303548813 63.858763750642538 31.469274293631315 65.032905034720898 14.690911591053007 21.973753929138184 7.218301221728324 26.776231467723846 15.136773109436033 127.28771346062422 9.1352949813008291 26.393653854727745 228.21265459060669
leaf_count=58 2253 311 231 647 212 82 2062 3675 339 145 300 76 407 15 1030 341 662 2124 302 430 326 668 1145 743 662 160 951 46 27 22 88 359 1104 27 1710 34 115 20 314 368 370 95 484 974 772 2897 184 100 459 45 114 91 153 37 51 27 54 25 412 21 108 812
internal_value=-4.92427e-12 0.00281299 -0.00551653 0.00217168 0.00127254 -0.000530663 -0.00866558 -0.00990694 0.00341477 -0.00332494 0.00110903 -0.00360891 -0.00288273 0.00875413 0.00347958 0.00154676 -0.00235927 -0.00440937 0.00418084 -0.0014886 -0.00603808 0.00894325 -0.00795851 -0.00562154 -0.00940943 0.00261776 0.002203 0.000583844 0.0100583 0.00111436 0.0023548 -0.00217552 0.00405492 0.0034708 0.00383907 0.00440231 0.00320402 0.00713615 -0.000624305 0.00126835 0.000128291 0.0015652 0.00220162 0.00456884 0.0034211 -0.00489384 -0.00407996 -0.00269217 -0.000906251 0.00707932 0.00160899 0.00104519 0.00245143 0.00637091 -0.00343744 -0.00309986 -0.000901987 0.00344729 -0.00279986 -0.00175478 -0.000856558 -0.000469258
internal_weight=9686.79 6415.43 3271.36 5790.39 3360.05 1849.21 1342.44 911.705 2430.34 1928.92 1089.61 1837.07 759.598 625.04 1510.84 1008.31 696.21 1233.98 1127.44 557.554 430.732 618.795 481.304 184.359 296.945 658.492 611.884 243.875 430.59 529.076 91.8485 108.155 1901.27 1286.83 1179.3 941.509 451.89 72.1946 159.994 524.499 344.336 220.652 210.771 1039.86 493.642 1084.06 684.851 44.0273 149.923 143.444 237.793 223.802 170.359 78.5497 53.443 313.679 91.8091 180.163 306.461 81.7767 153.681 349.82
internal_count=32876 15785 17091 14764 9528 6193 8865 6456 5236 8226 3095 7993 3098 1021 3335 2795 2691 5740 2305 2044 2409 1006 2781 974 1807 1642 1560 835 695 1522 233 405 3714 2610 2271 1744 1086 135 474 1500 1107 737 679 2003 1029 5205 3081 195 535 257 527 500 358 151 142 1209 207 393 1182 347 520 1153
is_linear=0
shrinkage=0.01


Tree=11
num_leaves=63
num_cat=0
split_feature=20 17 20 15 17 20 20 2 17 17 17 2 16 20 11 19 19 11 3 6 17 3 0 2 3 19 10 19 13 11 9 15 11 14 17 9 9 20 18 2 18 17 11 19 16 2 11 9 12 3 18 16 3 11 9 20 14 2 20 0 18 2
split_gain=1423.27 225.777 215.51 69.3678 80.1667 61.3435 39.5103 38.0433 31.5737 28.4083 27.7497 21.2068 21.1177 19.2062 19.1166 24.3317 19.0434 24.2396 23.3826 16.6185 18.672 16.2082 15.7351 15.6694 15.3968 15.3076 14.3093 13.6361 13.6026 13.8035 22.0984 13.3254 12.9513 12.7223 12.6628 13.5165 12.3628 12.3239 12.2285 12.0176 11.6024 11.4966 11.4651 15.5516 13.2168 11.661 17.7616 13.0311 11.3047 11.2998 11.2847 11.2295 11.1363 11.0996 11.0548 10.9868 10.768 10.6932 10.681 10.4751 10.3059 10.2855
threshold=3.5577777777777784 0.57518796992481214 4.7533783783783798 1.0000000180025095e-35 0.12933094384707292 6.0690476190476197 1.3666666666666669 413.50000000000006 0.67333333333333345 0.069204980842911892 0.46410256410256417 483.50000000000006 1.0000000180025095e-35 3.0263157894736845 0.88194444444444453 0.11291933749179067 0.11162711685830735 0.63068181818181823 24.500000000000004 1.5000000000000002 0.21320346320346323 -8.4999999999999982 1600.0000000000002 542.50000000000011 -12.499999999999998 0.11294549899506089 2.5000000000000004 0.11599848887401652 1450.0000000000002 0.76388888888888895 3049.5000000000005 1950.0000000000002 0.55050505050505061 1450.0000000000002 0.49137931034482768 2577.0000000000005 865.50000000000011 4.0923295454545459 0.11249341740566891 533.50000000000011 0.11495009353858383 0.099295774647887344 0.55050505050505061 0.11193313942309009 1.0000000180025095e-35 474.50000000000006 0.63068181818181823 1123.5000000000002 1.0000000180025095e-35 12.500000000000002 0.11188933658315713 250.00000000000003 6.5000000000000009 0.78888888888888908 2292.5000000000005 7.5741758241758248 1950.0000000000002 435.50000000000006 3.8603896103896109 1800.0000000000002 0.11065361859392749 477.50000000000006
decision_type=2 2 2 2 2 2 2 2 2 2 2 2 2 2 2 2 2 2 2 2 2 2 2 2 2 2 2 2 2 2 2 2 2 2 2 2 2 2 2 2 2 2 2 2 2 2 2 2 2 2 2 2 2 2 2 2 2 2 2 2 2 2
left_child=1 3 10 7 6 14 22 -1 32 55 19 16 13 21 -4 -16 17 -9 24 31 25 -6 56 -11 -18 -21 28 51 29 48 53 41 39 -12 -14 -36 -22 -27 -15 59 -32 60 -8 -44 45 -45 -47 -48 -26 -23 -28 -10 -34 -31 -43 -7 -5 -19 -56 -3 -2 -50
right_child=2 8 5 4 12 9 42 11 27 23 33 -13 34 38 15 -17 18 57 -20 20 36 49 -24 -25 26 37 50 -29 -30 30 40 -33 52 -35 35 -37 -38 -39 -40 -41 -42 54 43 44 -46 46 47 -49 61 -51 -52 -53 -54 -55 58 -57 -58 -59 -60 -61 -62 -63
leaf_value=-0.0037232246978474003 0.016190187537097556 0.0030623486982790161 -0.0070908307812057305 -0.0038929238195399281 -0.0038138955554054728 -0.010964085741861916 -0.0016051875220461228 -0.0039553065051149425 0.010439286539645615 -0.007254814652257806 -0.0054407528408728914 0.0044588193255571899 -0.00068094335084154076 0.0057218254697208497 0.0015894906330088875 -0.0061977775070859642 -0.0035162029349590802 -0.0055073809132623894 -0.015102777891949493 -0.00025218021545490138 -0.0047804608126380812 0.0034607603633928829 -0.01095684030795868 0.010970087991989222 -0.0045288500425181705 -0.0016146857430782801 0.012053393639378879 -0.0028909264709449435 0.0015325341944810288 0.010080358864949155 0.0064242549726258036 0.012652227037474002 0.0081930018771357287 0.0077837766370485771 0.0023850353300747555 0.016055766544890153 0.0036301762570149668 -0.0046381719728546961 -0.0011760130150294714 0.013261304381210324 -0.011348800108008676 -0.0038051762380158925 0.010676691260902864 -5.324942456577111e-06 -0.0043891643969525586 0.012453381295495787 -0.0042996374630305664 0.0055581550054208421 0.0036576653877303683 -0.0078313019006786729 -0.0031397247097461364 0.0034467027318956307 -0.0024499868580608619 0.0052010330419585329 0.010012900016931493 -0.014830336060696376 0.010149864053256127 0.0044896389974782578 -0.0024256076163364725 -0.010741350575927087 -0.006458838463967379 -9.3286546235312164e-05
leaf_weight=79.439600390382111 2.0287381056696168 122.92714923620224 920.42972656339407 300.41364507935941 32.306705541908741 345.4342301376164 209.8367999792099 93.657493254169822 390.72035865485668 135.68297605589032 9.1566749513149244 1015.4890169203281 346.85787770152092 30.150901548564434 61.324576072394848 116.06106601655483 34.719252921640873 12.278056085109709 7.1049292758107176 203.6602239087224 22.081183280795813 1110.5388855859637 32.491969598457217 4.8875516653060904 18.710059203207493 222.11057830601931 5.3982781879603854 8.3339392840862256 319.41682231426239 54.561141040176153 5.3654689788818386 4.6511313896626225 147.76586896181107 35.39018140733242 58.50442261993885 8.2525648623704893 83.810065869241953 343.004414498806 174.13123137503862 11.163293972611426 11.644487619400023 369.26961463689804 17.362386781722307 124.76888289675117 39.820365324616432 22.349437430500984 21.129808649420738 36.702744618058205 822.62793606705964 8.9331687986850721 51.790537886321545 24.400230392813683 10.532058432698248 320.38520985841751 11.66311200708151 93.367146588861942 5.5615230463445178 83.226211741566658 16.917041793465614 5.7548868954181662 206.80666953325272 80.23476442694664
leaf_count=391 4 220 5409 1331 97 2800 670 403 629 805 32 1942 1174 78 196 578 121 68 37 670 73 2578 246 9 53 799 10 27 766 90 9 12 234 68 141 12 244 1547 612 15 28 1690 28 386 125 39 71 91 1778 38 158 47 26 598 35 1019 20 218 81 16 1020 164
internal_value=6.99826e-12 0.00275434 -0.00542477 0.00207551 0.000871764 -0.00790087 -0.00173298 0.00310526 0.00801882 -0.0105334 -0.00271144 0.00328998 0.00206463 0.00266793 -0.00651153 -0.00350562 0.00267214 -0.000340494 0.00300118 -0.00294458 -0.00206047 0.00316913 -0.0043403 -0.00662115 0.00307575 -0.00260273 0.00321117 0.00977401 0.00338336 0.00383343 0.00540532 -0.00420951 0.00552591 0.00506545 8.66647e-05 0.00407502 0.00187633 -0.00344983 -0.000157931 0.00330844 -0.00574263 -0.00433878 0.000136826 0.0015313 0.00088259 0.00190685 0.00488233 0.00195649 0.00316489 0.00337065 -0.00170559 0.0100283 0.00748489 0.00591106 -0.00334143 -0.0117867 -0.00363768 0.00320442 0.00265035 0.00244502 -0.00623881 0.00332433
internal_weight=9525.5 6317.76 3207.74 5596.16 2580.11 1677.19 810.438 3016.05 721.598 579.372 1530.55 2936.61 1769.68 1356.06 1097.82 177.386 1921.12 189.162 1731.96 1486 874.666 1151.78 338.467 140.571 1724.85 768.775 1690.13 423.455 1632.95 1313.53 391.956 611.336 298.143 44.5469 413.615 66.757 105.891 565.115 204.282 139.845 17.01 606.685 471.97 262.134 244.771 204.951 80.182 57.8326 921.573 1119.47 57.1888 415.121 158.298 374.946 397.85 438.801 305.975 95.5043 28.5802 128.682 208.835 902.863
internal_count=32876 15785 17091 14571 7737 10816 3007 6834 1214 4633 6275 6443 4730 3403 6183 774 4501 689 3812 6175 3333 2713 1597 814 3775 3016 3654 703 3486 2720 725 2842 511 100 1327 153 317 2346 690 251 37 2830 1410 740 712 587 201 162 1995 2616 168 676 260 688 1806 3819 1351 286 116 236 1024 1942
is_linear=0
shrinkage=0.01


Tree=12
num_leaves=63
num_cat=0
split_feature=20 17 20 15 17 20 20 2 17 17 17 2 9 16 20 11 19 2 0 9 19 1 17 2 18 9 17 11 19 9 9 19 17 19 11 3 19 2 9 17 3 3 3 9 20 16 20 17 17 9 9 2 2 16 18 11 19 2 14 17 9 2
split_gain=1344.57 225.038 207.748 65.5053 71.9987 58.3582 37.6751 34.474 27.739 26.9949 22.9288 19.2747 21.7086 18.9158 19.8772 18.4677 22.7346 15.4385 15.4001 15.2414 18.0123 17.3619 14.3567 14.2739 14.2153 14.0548 18.015 13.9042 13.5672 18.3368 13.2781 13.2104 12.5272 12.9292 12.4135 11.5614 11.6546 11.451 12.8152 11.0879 11.0612 10.7851 10.7632 11.5276 10.7572 10.6696 10.6508 22.3327 14.8412 13.9027 13.3454 13.9607 14.1205 16.6039 12.5343 12.1465 14.9437 11.1435 10.5625 10.5408 16.1748 15.9103
threshold=3.5577777777777784 0.57518796992481214 4.7533783783783798 -1.0000000180025095e-35 0.12933094384707292 6.0690476190476197 1.3666666666666669 413.50000000000006 0.069204980842911892 0.67333333333333345 0.46410256410256417 459.50000000000006 768.50000000000011 1.0000000180025095e-35 2.759615384615385 0.88194444444444453 0.11291933749179067 488.50000000000006 1600.0000000000002 301.50000000000006 0.11234633220642236 5.5000000000000009 0.26365441906653431 534.50000000000011 0.11599848887401652 2386.5000000000005 0.031498015873015879 0.88194444444444453 0.11233360043004152 1946.5000000000002 897.50000000000011 0.11205521646470686 0.49137931034482768 0.11507020290666793 0.84523809523809534 -11.499999999999998 0.11607884780140705 442.50000000000006 2865.5000000000005 0.42640692640692646 -9.4999999999999982 5.5000000000000009 4.5000000000000009 1135.0000000000002 7.4409722222222232 250.00000000000003 1.3666666666666669 -1.0000000180025095e-35 0.49137931034482768 1253.5000000000002 2441.5000000000005 559.50000000000011 528.50000000000011 -149.99999999999997 0.11544664107169166 0.88194444444444453 0.10860192122246125 536.50000000000011 1950.0000000000002 0.067117117117117139 1123.5000000000002 422.50000000000006
decision_type=2 2 2 2 2 2 2 2 2 2 2 2 2 2 2 2 2 2 2 2 2 2 2 2 2 2 2 2 2 2 2 2 2 2 2 2 2 2 2 2 2 2 2 2 2 2 2 2 2 2 2 2 2 2 2 2 2 2 2 2 2 2
left_child=1 3 10 7 6 15 18 -1 44 34 17 12 -9 14 28 39 -17 19 58 -2 21 -21 -15 -10 45 -22 -27 32 31 -30 -29 -6 33 -14 -3 -13 46 38 41 -4 -31 -24 -39 -44 -7 -11 47 50 49 -49 51 52 53 -37 -51 56 -54 -58 -5 61 -61 -8
right_child=2 9 5 4 13 8 59 11 23 24 -12 35 27 22 -16 16 -18 -19 -20 20 25 -23 37 -25 -26 26 -28 30 29 40 -32 -33 -34 -35 -36 36 -38 42 -40 -41 -42 -43 43 -45 -46 -47 -48 48 -50 54 -52 -53 55 -55 -56 -57 57 -59 -60 60 -62 -63
leaf_value=-0.003584593403232663 -0.0067530178392530586 0.004716074096902099 -0.0071145230997292468 -0.0038044876963678267 0.0015901586882925661 -0.010720248391009719 -0.006458869456061756 -0.0019206206785290266 -0.0072277038448693995 0.010322838977970464 0.004447950244905065 -0.00060955775238049172 0.00057575412266462655 -0.0022934688231835477 0.00061315989969927813 0.0013982463041404014 -0.0061145819600879623 -0.00063445883232007925 -0.010868389370594174 -0.0032904699282718984 -0.0039169207982681486 0.0043685435457516946 -0.0076961175195598332 0.0076207046911220344 -0.0036834035701210199 -0.0046502854193088208 0.0024924192428891659 0.01842576819887614 0.0017422855251325326 -0.0086586711986585858 0.0047218018497270043 0.0089093455298637509 0.0053739392271842162 0.0034340235699413806 0.010118019808549674 -0.008139778485228592 -0.0061773147962271499 0.0035224671842345456 0.0083931497386987401 0.0035154493186857743 0.0050438972137357074 0.0079587347342798716 -0.013089627897916484 0.00080958289970028789 -0.014366608108414844 0.0034354096646811152 0.0073796734842707006 -0.0052529075493320063 0.0034921224256732365 0.002652721696959463 0.0021459043948694381 0.016560151054187022 0.010508481027345308 0.0049670307803046801 -0.016645991446864704 0.012494014984376892 -0.010834345066697025 -5.2603630939492741e-05 0.0098181586864292091 -0.0054935016646197399 0.00064220429163770677 0.0021363639449968838
leaf_weight=77.112621515989304 117.62912023812532 238.55660670995712 890.75241412222385 293.87256084661931 36.360956193879247 319.06997030228376 23.530552640557289 118.50723278522491 131.97263625264168 381.27693393826485 44.237748593091965 57.520038329064846 439.93523545563221 157.43335208110511 386.09129363298416 62.320060141384602 113.8879836127162 257.1085839420557 31.715472564101219 56.605955243110657 826.16792354732752 62.031239867210388 31.651093803346157 6.8081581965088835 7.8342590928077689 61.319516643881798 83.251734778285027 7.4346680641174308 536.69796953350306 6.0057135149836531 144.29329310357571 76.63075065612793 101.11034107208252 247.1725190281868 51.771606743335724 9.747574567794798 11.30353796482086 174.32853550463915 8.0750388801097852 9.9219397753477079 308.73956504464149 5.1114160120487204 8.1649224162101763 22.166637435555458 108.39076904952526 23.902230829000473 89.066434949636459 53.97574295848608 119.18304443359375 61.875064060091972 241.05487217009068 9.8795264959335309 7.7513608261942855 1145.4926709979773 3.5590441524982444 6.4168689250946036 16.821777231991291 22.286575973033905 5.8041490390896788 69.246560528874397 113.20054300129414 254.05309864878654
leaf_count=391 523 428 5372 1331 81 2586 85 463 799 629 100 159 1241 599 1193 196 578 1017 246 222 3611 171 110 15 27 304 327 11 1347 19 298 139 168 537 83 39 40 498 18 37 624 9 33 60 1233 47 161 231 225 181 447 12 11 2093 19 10 46 51 20 256 379 690
internal_value=3.05846e-12 0.00268766 -0.00532481 0.00201124 0.000833254 -0.00778476 -0.00167127 0.00301492 -0.0103837 0.00801601 -0.00264505 0.00318954 0.00211267 0.0019611 0.00253058 -0.00641819 -0.0034575 -0.00285937 -0.00424194 -0.0033333 -0.00296405 0.00071416 7.11002e-05 -0.00649929 0.00965857 -0.00341357 -0.00053714 0.00262118 0.00329818 0.00286611 0.0053933 0.00655402 0.00208756 0.00160396 0.00567935 0.00380369 0.00394485 0.00156315 -0.00301388 -0.00699742 0.00478244 -0.00551949 0.0025659 -0.00293193 -0.0116449 0.00991654 0.00400887 0.00383206 0.000995695 -0.00149599 0.00429575 0.00472109 0.00462431 0.00485644 0.00160304 -0.000409144 -0.00217608 -0.00469018 -0.00354064 0.000180555 -0.00168656 0.00140775
internal_weight=9395.2 6243.72 3151.48 5540.38 2548.88 1643.12 791.423 2991.5 566.242 703.342 1508.35 2914.39 1058.45 1757.46 1350.53 1076.88 176.208 1464.11 331.392 1207.01 1089.38 118.637 406.931 138.781 413.013 970.739 144.571 939.946 964.435 851.443 151.728 112.992 788.218 687.108 290.328 1855.93 1798.41 249.498 44.8375 900.674 314.745 36.7625 204.66 30.3316 427.461 405.179 1787.11 1698.04 238.593 119.41 1459.45 1218.4 1208.52 1155.24 65.4341 53.2766 46.8597 39.1084 299.677 460.031 182.447 277.584
internal_count=32876 15785 17091 14571 7737 10816 3007 6834 4633 1214 6275 6443 2718 4730 3403 6183 774 6175 1597 5158 4635 393 1327 814 703 4242 631 2255 2210 1990 309 220 1946 1778 511 3725 3566 728 137 5409 643 119 591 93 3819 676 3526 3365 656 431 2709 2262 2250 2132 200 118 108 97 1351 1410 635 775
is_linear=0
shrinkage=0.01


end of trees

feature_importances:
horse_win_rate=113
same_distance_avg_finish=110
horse_weight=105
horse_id_encoded=83
jockey_win_rate=67
trainer_win_rate=67
gate_position_ratio=54
horse_weight_diff=46
distance_change=43
gate=21
rest_category_encoded=20
class_encoded=17
past_2_distance=17
past_3_distance=13
distance_category_encoded=11
past_1_distance=11
distance=8

parameters:
[boosting: gbdt]
[objective: lambdarank]
[metric: ndcg]
[tree_learner: serial]
[device_type: gpu]
[data_sample_strategy: bagging]
[data: ]
[valid: ]
[num_iterations: 5000]
[learning_rate: 0.01]
[num_leaves: 63]
[num_threads: 10]
[seed: 0]
[deterministic: 0]
[force_col_wise: 1]
[force_row_wise: 0]
[histogram_pool_size: -1]
[max_depth: -1]
[min_data_in_leaf: 10]
[min_sum_hessian_in_leaf: 0.001]
[bagging_fraction: 1]
[pos_bagging_fraction: 1]
[neg_bagging_fraction: 1]
[bagging_freq: 0]
[bagging_seed: 3]
[bagging_by_query: 0]
[feature_fraction: 1]
[feature_fraction_bynode: 1]
[feature_fraction_seed: 2]
[extra_trees: 0]
[extra_seed: 6]
[early_stopping_round: 0]
[early_stopping_min_delta: 0]
[first_metric_only: 0]
[max_delta_step: 0]
[lambda_l1: 0]
[lambda_l2: 0]
[linear_lambda: 0]
[min_gain_to_split: 0]
[drop_rate: 0.1]
[max_drop: 50]
[skip_drop: 0.5]
[xgboost_dart_mode: 0]
[uniform_drop: 0]
[drop_seed: 4]
[top_rate: 0.2]
[other_rate: 0.1]
[min_data_per_group: 100]
[max_cat_threshold: 32]
[cat_l2: 10]
[cat_smooth: 10]
[max_cat_to_onehot: 4]
[top_k: 20]
[monotone_constraints: ]
[monotone_constraints_method: basic]
[monotone_penalty: 0]
[feature_contri: ]
[forcedsplits_filename: ]
[refit_decay_rate: 0.9]
[cegb_tradeoff: 1]
[cegb_penalty_split: 0]
[cegb_penalty_feature_lazy: ]
[cegb_penalty_feature_coupled: ]
[path_smooth: 0]
[interaction_constraints: ]
[verbosity: 1]
[saved_feature_importance_type: 0]
[use_quantized_grad: 0]
[num_grad_quant_bins: 4]
[quant_train_renew_leaf: 0]
[stochastic_rounding: 1]
[linear_tree: 0]
[max_bin: 255]
[max_bin_by_feature: ]
[min_data_in_bin: 3]
[bin_construct_sample_cnt: 200000]
[data_random_seed: 1]
[is_enable_sparse: 1]
[enable_bundle: 1]
[use_missing: 1]
[zero_as_missing: 0]
[feature_pre_filter: 1]
[pre_partition: 0]
[two_round: 0]
[header: 0]
[label_column: ]
[weight_column: ]
[group_column: ]
[ignore_column: ]
[categorical_feature: ]
[forcedbins_filename: ]
[precise_float_parser: 0]
[parser_config_file: ]
[objective_seed: 5]
[num_class: 1]
[is_unbalance: 0]
[scale_pos_weight: 1]
[sigmoid: 1]
[boost_from_average: 1]
[reg_sqrt: 0]
[alpha: 0.9]
[fair_c: 1]
[poisson_max_delta_step: 0.7]
[tweedie_variance_power: 1.5]
[lambdarank_truncation_level: 30]
[lambdarank_norm: 1]
[label_gain: ]
[lambdarank_position_bias_regularization: 0]
[eval_at: 1,3,5]
[multi_error_top_k: 1]
[auc_mu_weights: ]
[num_machines: 1]
[local_listen_port: 12400]
[time_out: 120]
[machine_list_filename: ]
[machines: ]
[gpu_platform_id: 1]
[gpu_device_id: 0]
[gpu_use_dp: 0]
[num_gpu: 1]

end of parameters

pandas_categorical:[]
